{"learner":{"attributes":{"scikit_learn":"{\"_estimator_type\": \"classifier\"}"},"feature_names":["PrixFac","prixAchat","Famille_SousFamille_encoded"],"feature_types":["float","float","int"],"gradient_booster":{"model":{"gbtree_model_param":{"num_parallel_tree":"1","num_trees":"100"},"iteration_indptr":[0,1,2,3,4,5,6,7,8,9,10,11,12,13,14,15,16,17,18,19,20,21,22,23,24,25,26,27,28,29,30,31,32,33,34,35,36,37,38,39,40,41,42,43,44,45,46,47,48,49,50,51,52,53,54,55,56,57,58,59,60,61,62,63,64,65,66,67,68,69,70,71,72,73,74,75,76,77,78,79,80,81,82,83,84,85,86,87,88,89,90,91,92,93,94,95,96,97,98,99,100],"tree_info":[0,0,0,0,0,0,0,0,0,0,0,0,0,0,0,0,0,0,0,0,0,0,0,0,0,0,0,0,0,0,0,0,0,0,0,0,0,0,0,0,0,0,0,0,0,0,0,0,0,0,0,0,0,0,0,0,0,0,0,0,0,0,0,0,0,0,0,0,0,0,0,0,0,0,0,0,0,0,0,0,0,0,0,0,0,0,0,0,0,0,0,0,0,0,0,0,0,0,0,0],"trees":[{"base_weights":[8.309905E-7,1.9206796E0,-1.7343712E0,1.9374304E0,1.3536067E-1,5.5982333E-1,-1.8263896E0,5.9276015E-1,1.6799244E0,-4.336146E-1,4.858919E-1,-1.8824621E0,-8.203232E-1,-5.1782525E-1,5.8882457E-1,-1.4312941E0,-1.9262141E0,1.0317346E0,-1.4626886E0,-1.7596714E0,5.2600104E-1,-1.9407706E0,-1.1428854E0,5.120083E-2,5.2400464E-1,-1.6356379E0,3.188193E-1,-3.540623E-1,-5.7675534E-1,-5.54377E-1,-5.977848E-1,5.674335E-2,-5.5572253E-1,4.541317E-1,-4.5467404E-1,-1.7959602E-1,-5.5023474E-1],"categories":[],"categories_nodes":[],"categories_segments":[],"categories_sizes":[],"default_left":[0,0,0,0,0,0,0,0,0,0,0,0,0,0,0,0,0,0,0,0,0,0,0,0,0,0,0,0,0,0,0,0,0,0,0,0,0],"id":0,"left_children":[1,3,5,7,9,-1,11,-1,13,-1,-1,15,17,-1,-1,19,21,23,25,27,-1,29,31,33,-1,35,-1,-1,-1,-1,-1,-1,-1,-1,-1,-1,-1],"loss_changes":[6.550886E3,2.7644287E1,3.4577856E2,5.829834E0,2.5214882E1,0E0,5.5327637E1,0E0,1.2547339E2,0E0,0E0,1.6077637E1,6.693567E1,0E0,0E0,9.5364E1,7.666748E0,1.0249739E1,1.9753113E1,5.326477E0,0E0,4.0771484E-1,1.7596825E1,1.8906305E1,0E0,6.9280853E0,0E0,0E0,0E0,0E0,0E0,0E0,0E0,0E0,0E0,0E0,0E0],"parents":[2147483647,0,0,1,1,2,2,3,3,4,4,6,6,8,8,11,11,12,12,15,15,16,16,17,17,18,18,19,19,21,21,22,22,23,23,25,25],"right_children":[2,4,6,8,10,-1,12,-1,14,-1,-1,16,18,-1,-1,20,22,24,26,28,-1,30,32,34,-1,36,-1,-1,-1,-1,-1,-1,-1,-1,-1,-1,-1],"split_conditions":[7.99E0,1.6749239E0,7.587978E-1,1E0,2.3844104E0,5.5982333E-1,2.6E1,5.9276015E-1,3.8667706E-1,-4.336146E-1,4.858919E-1,2.299E1,9.9E1,-5.1782525E-1,5.8882457E-1,6.768792E0,1.2E2,2.857E1,8.163426E1,1.299E1,5.2600104E-1,4.49E1,1.28E2,7.499E1,5.2400464E-1,1.19E2,3.188193E-1,-3.540623E-1,-5.7675534E-1,-5.54377E-1,-5.977848E-1,5.674335E-2,-5.5572253E-1,4.541317E-1,-4.5467404E-1,-1.7959602E-1,-5.5023474E-1],"split_indices":[0,0,1,0,1,0,1,0,1,0,0,0,0,0,0,1,2,1,1,0,0,0,2,0,0,0,0,0,0,0,0,0,0,0,0,0,0],"split_type":[0,0,0,0,0,0,0,0,0,0,0,0,0,0,0,0,0,0,0,0,0,0,0,0,0,0,0,0,0,0,0,0,0,0,0,0,0],"sum_hessian":[1.9645413E3,9.32151E2,1.0323904E3,9.234019E2,8.74907E0,2.5247318E1,1.007143E3,7.976653E2,1.2573664E2,4.2495484E0,4.499522E0,9.5314874E2,5.3994263E1,9.249018E0,1.16487625E2,8.724073E1,8.65908E2,1.374854E1,4.0245724E1,7.9491554E1,7.749177E0,8.4865985E2,1.7248167E1,6.2493362E0,7.499203E0,3.7995964E1,2.249761E0,1.9247955E1,6.02436E1,3.172163E2,5.3144354E2,6.2493362E0,1.0998832E1,3.2496548E0,2.9996815E0,6.749283E0,3.1246681E1],"tree_param":{"num_deleted":"0","num_feature":"3","num_nodes":"37","size_leaf_vector":"1"}},{"base_weights":[1.7790569E-3,1.493944E0,-1.3235404E0,1.5074598E0,1.0744888E-1,4.3621367E-1,-1.3940914E0,4.6140927E-1,1.3025907E0,-3.411216E-1,3.8873407E-1,-1.438534E0,-6.106927E-1,-4.018093E-1,4.5878178E-1,-1.2091384E0,-1.5012201E0,1.191021E0,-9.9898887E-1,-1.3873309E0,1.4941647E0,-9.56016E-1,-1.5132099E0,4.1057783E-1,5.580909E-1,-1.109847E0,3.234492E-1,-2.5214273E-1,-4.3357503E-1,1.629929E-1,6.015817E-1,-3.8710627E-1,4.049977E-1,-4.6837872E-1,-4.1541436E-1,-9.714427E-3,2.7602005E-1,-9.2002764E-2,-4.160209E-1],"categories":[],"categories_nodes":[],"categories_segments":[],"categories_sizes":[],"default_left":[0,0,0,0,0,0,0,0,0,0,0,0,0,0,0,0,0,0,0,0,0,0,0,0,0,0,0,0,0,0,0,0,0,0,0,0,0,0,0],"id":1,"left_children":[1,3,5,7,9,-1,11,-1,13,-1,-1,15,17,-1,-1,19,21,23,25,27,29,31,33,-1,35,37,-1,-1,-1,-1,-1,-1,-1,-1,-1,-1,-1,-1,-1],"loss_changes":[3.5798333E3,1.5794556E1,1.8989429E2,3.277588E0,1.5222891E1,0E0,3.1690796E1,0E0,7.153047E1,0E0,0E0,1.0903809E1,3.753946E1,0E0,0E0,9.5991394E1,3.0672607E0,3.228445E-1,1.1164806E1,4.5951843E0,5.0040607E0,1.5291906E1,1.9993896E0,0E0,8.434516E-1,8.823647E0,0E0,0E0,0E0,0E0,0E0,0E0,0E0,0E0,0E0,0E0,0E0,0E0,0E0],"parents":[2147483647,0,0,1,1,2,2,3,3,4,4,6,6,8,8,11,11,12,12,15,15,16,16,17,17,18,18,19,19,20,20,21,21,22,22,24,24,25,25],"right_children":[2,4,6,8,10,-1,12,-1,14,-1,-1,16,18,-1,-1,20,22,24,26,28,30,32,34,-1,36,38,-1,-1,-1,-1,-1,-1,-1,-1,-1,-1,-1,-1,-1],"split_conditions":[7.99E0,1.6749239E0,7.587978E-1,1E0,2.3844104E0,4.3621367E-1,2.6E1,4.6140927E-1,3.8667706E-1,-3.411216E-1,3.8873407E-1,3.299E1,8.999E1,-4.018093E-1,4.5878178E-1,8.864E0,4.82E0,7.999E1,1.0871797E2,1.299E1,1.0545E1,7.6E1,1.371E1,4.1057783E-1,3.411762E1,1.19E2,3.234492E-1,-2.5214273E-1,-4.3357503E-1,1.629929E-1,6.015817E-1,-3.8710627E-1,4.049977E-1,-4.6837872E-1,-4.1541436E-1,-9.714427E-3,2.7602005E-1,-9.2002764E-2,-4.160209E-1],"split_indices":[0,0,1,0,1,0,1,0,1,0,0,0,0,0,0,1,1,0,1,0,1,2,1,0,1,0,0,0,0,0,0,0,0,0,0,0,0,0,0],"split_type":[0,0,0,0,0,0,0,0,0,0,0,0,0,0,0,0,0,0,0,0,0,0,0,0,0,0,0,0,0,0,0,0,0,0,0,0,0,0,0],"sum_hessian":[1.8081951E3,8.504989E2,9.5769617E2,8.4220184E2,8.297091E0,2.3237234E1,9.344589E2,7.271822E2,1.1501964E2,4.0737996E0,4.223291E0,8.8350104E2,5.0957863E1,8.70106E0,1.0631858E2,1.9396959E2,6.8953143E2,8.668464E0,4.22894E1,1.8243115E2,1.1538438E1,1.6574802E1,6.7295667E2,5.8616376E0,2.8068256E0,4.0588852E1,1.700546E0,1.8956886E1,1.6347427E2,4.7551146E0,6.783324E0,1.4860658E1,1.7141441E0,4.8167728E2,1.9127937E2,1.4127778E0,1.394048E0,1.094586E1,2.9642992E1],"tree_param":{"num_deleted":"0","num_feature":"3","num_nodes":"39","size_leaf_vector":"1"}},{"base_weights":[3.8517856E-3,1.2974379E0,-1.1175102E0,1.3099974E0,9.301872E-2,1.2477329E0,-1.1773653E0,4.0125334E-1,1.125064E0,-9.4465923E-1,3.3277088E-1,3.8741603E-1,1.0903036E-1,-1.2129126E0,-3.400181E-1,-3.3819124E-1,3.9859208E-1,-3.1896052E-1,-8.615768E-2,-8.4903103E-1,-1.2495573E0,1.2112211E0,-9.582637E-1,-1.1137936E0,4.3935695E-1,-1.2652462E0,-7.6329046E-1,4.6030197E-1,4.7182357E-1,-1.1516954E0,2.363557E-1,-3.95813E-1,-1.2612648E-1,-3.9923087E-1,-3.4895483E-1,4.82139E-2,-3.4669673E-1,3.0890876E-1,-1.9730572E-1,-3.5601008E-1,-5.959872E-2],"categories":[],"categories_nodes":[],"categories_segments":[],"categories_sizes":[],"default_left":[0,0,0,0,0,0,0,0,0,0,0,0,0,0,0,0,0,0,0,0,0,0,0,0,0,0,0,0,0,0,0,0,0,0,0,0,0,0,0,0,0],"id":2,"left_children":[1,3,5,7,9,11,13,-1,15,17,-1,-1,-1,19,21,-1,-1,-1,-1,23,25,27,29,31,-1,33,35,37,-1,39,-1,-1,-1,-1,-1,-1,-1,-1,-1,-1,-1],"loss_changes":[2.2184055E3,1.0620361E1,1.17444336E2,2.0708008E0,9.911144E0,3.2992172E-1,2.3384766E1,0E0,4.6114517E1,6.0865402E-2,0E0,0E0,0E0,9.160522E0,3.371804E1,0E0,0E0,0E0,0E0,4.6501083E1,4.3310547E0,2.022273E0,9.294395E0,8.89576E0,0E0,2.9398193E0,8.967064E0,3.6699188E0,0E0,5.235901E-1,0E0,0E0,0E0,0E0,0E0,0E0,0E0,0E0,0E0,0E0,0E0],"parents":[2147483647,0,0,1,1,2,2,3,3,4,4,5,5,6,6,8,8,9,9,13,13,14,14,19,19,20,20,21,21,22,22,23,23,25,25,26,26,27,27,29,29],"right_children":[2,4,6,8,10,12,14,-1,16,18,-1,-1,-1,20,22,-1,-1,-1,-1,24,26,28,30,32,-1,34,36,38,-1,40,-1,-1,-1,-1,-1,-1,-1,-1,-1,-1,-1],"split_conditions":[7.99E0,1.6749239E0,7.587978E-1,1E0,2.3844104E0,1.2340465E-1,3.002327E1,4.0125334E-1,3.8667706E-1,9.3E1,3.3277088E-1,3.8741603E-1,1.0903036E-1,2.299E1,1.19E2,-3.3819124E-1,3.9859208E-1,-3.1896052E-1,-8.615768E-2,6.768792E0,1.15E2,3.4913002E1,8.163426E1,4.943432E0,4.3935695E-1,1.1090047E1,3.9E1,8.599E1,4.7182357E-1,6.032041E1,2.363557E-1,-3.95813E-1,-1.2612648E-1,-3.9923087E-1,-3.4895483E-1,4.82139E-2,-3.4669673E-1,3.0890876E-1,-1.9730572E-1,-3.5601008E-1,-5.959872E-2],"split_indices":[0,0,1,0,1,1,1,0,1,2,0,0,0,0,0,0,0,0,0,1,2,1,1,1,0,1,0,0,0,1,0,0,0,0,0,0,0,0,0,0,0],"split_type":[0,0,0,0,0,0,0,0,0,0,0,0,0,0,0,0,0,0,0,0,0,0,0,0,0,0,0,0,0,0,0,0,0,0,0,0,0,0,0,0,0],"sum_hessian":[1.5273256E3,7.0912854E2,8.1819696E2,7.017234E2,7.405158E0,1.9704527E1,7.9849243E2,6.0541925E2,9.630414E1,3.6987321E0,3.706426E0,1.8338865E1,1.3656602E0,7.655448E2,3.2947636E1,7.6066494E0,8.869749E1,2.61087E0,1.0878624E0,7.225191E1,6.932929E2,9.115876E0,2.3831758E1,6.529782E1,6.9540877E0,6.7007166E2,2.3221237E1,3.7012544E0,5.414622E0,2.1761484E1,2.0702748E0,4.9668423E1,1.5629398E1,4.007543E2,2.6931735E2,7.097449E0,1.6123787E1,2.5046196E0,1.196635E0,2.0754007E1,1.0074761E0],"tree_param":{"num_deleted":"0","num_feature":"3","num_nodes":"41","size_leaf_vector":"1"}},{"base_weights":[6.0605E-3,1.1976932E0,-9.722513E-1,1.0313327E0,3.6788014E-1,1.0254604E0,-1.026745E0,3.604254E-1,-2.9483855E-1,3.501471E-1,1.6008924E-1,-1.0705749E0,-3.4594592E-1,-1.4594012E-1,2.9084143E-1,-2.5542113E-1,-1.0996639E0,1.0729473E0,-6.930095E-1,-3.7807494E-1,1.9078213E0,-9.525888E-1,-1.2076273E0,3.757793E-1,4.16427E-1,-1.1968533E0,-1.6525126E-1,2.9037628E-1,6.900315E-1,-3.1070727E-1,9.7897893E-1,-5.980752E-2,-3.631143E-1,-4.293588E-3,2.0646475E-1,-3.866573E-1,-1.7372066E-1,3.8832438E-1,-1.9767572E-1],"categories":[],"categories_nodes":[],"categories_segments":[],"categories_sizes":[],"default_left":[0,0,0,0,0,0,0,0,0,0,0,0,0,0,0,0,0,0,0,0,0,0,0,0,0,0,0,0,0,0,0,0,0,0,0,0,0,0,0],"id":3,"left_children":[1,3,5,7,-1,9,11,-1,-1,-1,13,15,17,-1,-1,19,21,23,25,-1,27,29,31,-1,33,35,37,-1,-1,-1,-1,-1,-1,-1,-1,-1,-1,-1,-1],"loss_changes":[1.4521925E3,1.4049683E0,7.55224E1,3.1536835E1,0E0,2.101839E0,1.9514832E1,0E0,0E0,0E0,2.4524293E0,1.4553772E1,2.1320759E1,0E0,0E0,5.2092E1,8.436523E0,4.9324322E-1,8.891239E0,0E0,5.93544E-1,9.4581985E1,7.1502686E-1,0E0,4.016477E-1,2.3848343E-1,1.3718725E1,0E0,0E0,0E0,0E0,0E0,0E0,0E0,0E0,0E0,0E0,0E0,0E0],"parents":[2147483647,0,0,1,1,2,2,3,3,5,5,6,6,10,10,11,11,12,12,15,15,16,16,17,17,18,18,20,20,21,21,22,22,24,24,25,25,26,26],"right_children":[2,4,6,8,-1,10,12,-1,-1,-1,14,16,18,-1,-1,20,22,24,26,-1,28,30,32,-1,34,36,38,-1,-1,-1,-1,-1,-1,-1,-1,-1,-1,-1,-1],"split_conditions":[1.6749239E0,3.8667706E-1,1E0,9.919919E-1,3.6788014E-1,1.2340465E-1,2.6E1,3.604254E-1,-2.9483855E-1,3.501471E-1,7.2E1,1.299E1,8.999E1,-1.4594012E-1,2.9084143E-1,3.705E0,4.49E1,7.999E1,3.749829E1,-3.7807494E-1,7.99E0,1.371E1,3.11E0,3.757793E-1,3.411762E1,3.56859E1,1.19E2,2.9037628E-1,6.900315E-1,-3.1070727E-1,9.7897893E-1,-5.980752E-2,-3.631143E-1,-4.293588E-3,2.0646475E-1,-3.866573E-1,-1.7372066E-1,3.8832438E-1,-1.9767572E-1],"split_indices":[0,1,1,0,0,1,1,0,0,0,2,0,0,0,0,1,0,0,1,0,0,1,1,0,1,1,0,0,0,0,0,0,0,0,0,0,0,0,0],"split_type":[0,0,0,0,0,0,0,0,0,0,0,0,0,0,0,0,0,0,0,0,0,0,0,0,0,0,0,0,0,0,0,0,0,0,0,0,0,0,0],"sum_hessian":[1.2436753E3,5.606055E2,6.830698E2,8.7611885E1,4.7299362E2,1.7664886E1,6.6540497E2,8.1161606E1,6.4502783E0,1.4879732E1,2.785154E0,6.2461926E2,4.078568E1,1.7701087E0,1.0150455E0,2.1858696E1,6.0276056E2,7.6045685E0,3.318111E1,1.5210723E1,6.6479726E0,2.5932013E2,3.4344046E2,5.2578697E0,2.3466983E0,1.6326555E1,1.6854553E1,2.9786396E0,3.6693327E0,2.5504701E2,4.2731085E0,1.1353225E0,3.4230515E2,1.2743742E0,1.0723242E0,1.3264819E1,3.0617366E0,3.8497283E0,1.3004826E1],"tree_param":{"num_deleted":"0","num_feature":"3","num_nodes":"39","size_leaf_vector":"1"}},{"base_weights":[8.614261E-3,1.11419E0,-8.78155E-1,1.1266313E0,1.1020269E-1,1.0325041E0,-9.2633307E-1,9.5923907E-1,3.4658438E-1,-2.0644796E-1,2.708235E-1,3.2446483E-1,8.971786E-2,-9.713466E-1,-2.8051814E-1,3.3777905E-1,-2.6105195E-1,-6.8244934E-1,-1.0683753E0,9.3323696E-1,-5.8399826E-1,-8.671968E-1,1.612647E0,-3.2351017E-1,-1.0842091E0,3.2891303E-1,1.10411175E-1,-1.0641972E0,-1.167355E-1,-1.7857385E-1,-3.133962E-1,1.6139135E-1,5.6901395E-1,-2.0361798E-1,3.3636844E-1,-3.45086E-1,-2.6527798E-1,-3.4787706E-1,-1.4580546E-1,3.325523E-1,-1.574763E-1],"categories":[],"categories_nodes":[],"categories_segments":[],"categories_sizes":[],"default_left":[0,0,0,0,0,0,0,0,0,0,0,0,0,0,0,0,0,0,0,0,0,0,0,0,0,0,0,0,0,0,0,0,0,0,0,0,0,0,0,0,0],"id":4,"left_children":[1,3,5,7,9,11,13,15,-1,-1,-1,-1,-1,17,19,-1,-1,21,23,25,27,29,31,33,35,-1,-1,37,39,-1,-1,-1,-1,-1,-1,-1,-1,-1,-1,-1,-1],"loss_changes":[9.778675E2,5.4211426E0,5.190616E1,9.942627E-1,4.760818E0,1.8325615E-1,1.5437256E1,2.2314156E1,0E0,0E0,0E0,0E0,0E0,1.3420715E1,1.4033301E1,0E0,0E0,5.6384674E1,4.085022E0,3.0734348E-1,6.586672E0,5.2016373E0,2.0357227E0,5.510008E0,3.8429565E0,0E0,0E0,2.4315834E-1,8.724825E0,0E0,0E0,0E0,0E0,0E0,0E0,0E0,0E0,0E0,0E0,0E0,0E0],"parents":[2147483647,0,0,1,1,2,2,3,3,4,4,5,5,6,6,7,7,13,13,14,14,17,17,18,18,19,19,20,20,21,21,22,22,23,23,24,24,27,27,28,28],"right_children":[2,4,6,8,10,12,14,16,-1,-1,-1,-1,-1,18,20,-1,-1,22,24,26,28,30,32,34,36,-1,-1,38,40,-1,-1,-1,-1,-1,-1,-1,-1,-1,-1,-1,-1],"split_conditions":[7.99E0,1.6749239E0,7.587978E-1,3.8667706E-1,2.3844104E0,1.2340465E-1,2.6E1,9.919919E-1,3.4658438E-1,-2.0644796E-1,2.708235E-1,3.2446483E-1,8.971786E-2,3.4E1,8.999E1,3.3777905E-1,-2.6105195E-1,9.549437E0,4.82E0,7.999E1,3.749829E1,2.199E1,1.0545E1,7.6E1,1.436983E1,3.2891303E-1,1.10411175E-1,3.56859E1,1.19E2,-1.7857385E-1,-3.133962E-1,1.6139135E-1,5.6901395E-1,-2.0361798E-1,3.3636844E-1,-3.45086E-1,-2.6527798E-1,-3.4787706E-1,-1.4580546E-1,3.325523E-1,-1.574763E-1],"split_indices":[0,0,1,1,1,1,1,0,0,0,0,0,0,0,0,0,0,1,1,0,1,0,1,2,1,0,0,1,0,0,0,0,0,0,0,0,0,0,0,0,0],"split_type":[0,0,0,0,0,0,0,0,0,0,0,0,0,0,0,0,0,0,0,0,0,0,0,0,0,0,0,0,0,0,0,0,0,0,0,0,0,0,0,0,0],"sum_hessian":[9.9542847E2,4.4293933E2,5.5248914E2,4.3739697E2,5.542357E0,1.308609E1,5.39403E2,6.896113E1,3.6843585E2,2.8266523E0,2.7157047E0,1.1821005E1,1.2650855E0,5.0378494E2,3.561809E1,6.3554733E1,5.406391E0,1.2868037E2,3.7510458E2,6.7093263E0,2.8908766E1,1.1966953E2,9.0108385E0,8.253799E0,3.6685077E2,4.4772143E0,2.232112E0,1.3626995E1,1.5281771E1,4.8973145E1,7.069639E1,2.4888544E0,6.521984E0,7.050506E0,1.2032932E0,2.7215753E2,9.4693245E1,1.0833929E1,2.7930653E0,3.390093E0,1.1891678E1],"tree_param":{"num_deleted":"0","num_feature":"3","num_nodes":"41","size_leaf_vector":"1"}},{"base_weights":[1.1245057E-2,1.0523573E0,-8.022229E-1,1.0783966E0,1.3300705E-1,9.584228E-1,-8.470404E-1,9.045033E-1,3.324291E-1,-8.7664455E-1,3.994615E-1,3.0472535E-1,7.702238E-2,-8.9975756E-1,-2.8962114E-1,3.2145977E-1,-2.3232487E-1,-2.9398263E-1,-6.310154E-2,-7.025209E-1,-1.0733184E0,4.5031258E-1,-5.54151E-1,-8.18595E-1,1.873628E0,-1.103095E0,-7.794321E-1,-9.9729174E-1,-9.709386E-2,-1.900344E-1,-3.0756077E-1,1.0476026E-1,6.4272034E-1,-4.3417204E-2,-3.32381E-1,7.7736646E-1,-3.259103E-1,-1.2014987E-1,-3.2906404E-1,3.1127813E-1,-1.4154594E-1],"categories":[],"categories_nodes":[],"categories_segments":[],"categories_sizes":[],"default_left":[0,0,0,0,0,0,0,0,0,0,0,0,0,0,0,0,0,0,0,0,0,0,0,0,0,0,0,0,0,0,0,0,0,0,0,0,0,0,0,0,0],"id":5,"left_children":[1,3,5,7,9,11,13,15,-1,17,-1,-1,-1,19,21,-1,-1,-1,-1,23,25,-1,27,29,31,33,35,37,39,-1,-1,-1,-1,-1,-1,-1,-1,-1,-1,-1,-1],"loss_changes":[6.7015027E2,8.165253E0,3.586389E1,7.4017334E-1,1.4115744E1,2.0165634E-1,1.2484497E1,1.6157787E1,0E0,2.3512173E-1,0E0,0E0,0E0,1.2794189E1,1.9281336E1,0E0,0E0,0E0,0E0,5.7793533E1,9.6588135E-1,0E0,6.9244747E0,6.263954E0,2.7000504E0,7.0747375E-1,2.6197971E1,6.0038185E-1,8.216651E0,0E0,0E0,0E0,0E0,0E0,0E0,0E0,0E0,0E0,0E0,0E0,0E0],"parents":[2147483647,0,0,1,1,2,2,3,3,4,4,5,5,6,6,7,7,9,9,13,13,14,14,19,19,20,20,22,22,23,23,24,24,25,25,26,26,27,27,28,28],"right_children":[2,4,6,8,10,12,14,16,-1,18,-1,-1,-1,20,22,-1,-1,-1,-1,24,26,-1,28,30,32,34,36,38,40,-1,-1,-1,-1,-1,-1,-1,-1,-1,-1,-1,-1],"split_conditions":[9.9E0,1.6749239E0,7.587978E-1,3.8667706E-1,2.85E0,1.2340465E-1,2.4239115E1,9.919919E-1,3.324291E-1,9.3E1,3.994615E-1,3.0472535E-1,7.702238E-2,4.49E1,7.999E1,3.2145977E-1,-2.3232487E-1,-2.9398263E-1,-6.310154E-2,1.2314195E1,1.9E1,4.5031258E-1,3.56859E1,3.2E1,1.4E1,3.11E0,6.9E1,8.9E1,1.19E2,-1.900344E-1,-3.0756077E-1,1.0476026E-1,6.4272034E-1,-4.3417204E-2,-3.32381E-1,7.7736646E-1,-3.259103E-1,-1.2014987E-1,-3.2906404E-1,3.1127813E-1,-1.4154594E-1],"split_indices":[0,0,1,1,1,1,1,0,0,2,0,0,0,0,0,0,0,0,0,1,1,0,1,0,2,1,0,0,0,0,0,0,0,0,0,0,0,0,0,0,0],"split_type":[0,0,0,0,0,0,0,0,0,0,0,0,0,0,0,0,0,0,0,0,0,0,0,0,0,0,0,0,0,0,0,0,0,0,0,0,0,0,0,0,0],"sum_hessian":[7.892904E2,3.4607486E2,4.4321555E2,3.363745E2,9.70033E0,1.0496024E1,4.327195E2,5.36591E1,2.8271542E2,5.4108E0,4.2895303E0,9.289467E0,1.2065578E0,3.9477048E2,3.794904E1,4.9132835E1,4.526264E0,4.277024E0,1.1337762E0,1.8714464E2,2.0762584E2,4.2828794E0,3.366616E1,1.797288E2,7.4158373E0,1.8602429E2,2.1601553E1,1.649318E1,1.7172981E1,9.6931564E1,8.279723E1,1.4561398E0,5.9596972E0,1.0903361E0,1.8493396E2,1.1817514E0,2.0419802E1,3.0767891E0,1.341639E1,3.8241963E0,1.3348784E1],"tree_param":{"num_deleted":"0","num_feature":"3","num_nodes":"41","size_leaf_vector":"1"}},{"base_weights":[1.3597697E-2,1.0436937E0,-7.040552E-1,8.5857767E-1,3.225991E-1,8.2419413E-1,-7.470749E-1,3.0859402E-1,-2.0661207E-1,2.8803813E-1,2.3773676E-1,-4.5353633E-1,-8.583061E-1,-7.591447E-2,1.8803887E-1,-6.891894E-1,1.0651323E0,-9.4557506E-1,-2.3927137E-1,-4.0613276E-1,-9.272992E-1,5.066441E-1,1.00418195E-1,-6.0487997E-2,-9.6823794E-1,4.1755173E-1,-4.73287E-1,-2.8251204E-1,1.9540139E-1,-2.9342777E-1,7.052886E-2,-2.6078412E-1,2.7214825E-1,-1.2108892E-1,2.766235E-1,-3.1933853E-1,-2.2124347E-1,-1.9116615E-1,2.347567E-1],"categories":[],"categories_nodes":[],"categories_segments":[],"categories_sizes":[],"default_left":[0,0,0,0,0,0,0,0,0,0,0,0,0,0,0,0,0,0,0,0,0,0,0,0,0,0,0,0,0,0,0,0,0,0,0,0,0,0,0],"id":6,"left_children":[1,3,5,7,-1,9,11,-1,-1,-1,13,15,17,-1,-1,19,21,23,25,27,29,-1,31,33,35,-1,37,-1,-1,-1,-1,-1,-1,-1,-1,-1,-1,-1,-1],"loss_changes":[4.6332327E2,5.838623E-1,2.4902252E1,1.1898119E1,0E0,6.159172E-1,1.1358948E1,0E0,0E0,0E0,7.92873E-1,3.687931E1,1.3809784E1,0E0,0E0,5.557083E0,8.2296E0,4.5023193E0,1.3423417E1,2.440155E1,3.0070763E0,0E0,5.9083023E0,2.6457539E0,4.1362457E0,0E0,6.6729817E0,0E0,0E0,0E0,0E0,0E0,0E0,0E0,0E0,0E0,0E0,0E0,0E0],"parents":[2147483647,0,0,1,1,2,2,3,3,5,5,6,6,10,10,11,11,12,12,15,15,16,16,17,17,18,18,19,19,20,20,22,22,23,23,24,24,26,26],"right_children":[2,4,6,8,-1,10,12,-1,-1,-1,14,16,18,-1,-1,20,22,24,26,28,30,-1,32,34,36,-1,38,-1,-1,-1,-1,-1,-1,-1,-1,-1,-1,-1,-1],"split_conditions":[1.6749239E0,3.8667706E-1,1E0,9.919919E-1,3.225991E-1,1.2340465E-1,3.4E1,3.0859402E-1,-2.0661207E-1,2.8803813E-1,6.3E1,8.595302E0,2.4239115E1,-7.591447E-2,1.8803887E-1,2.199E1,2.999E1,4.82E0,7.999E1,4.943432E0,1.19E2,5.066441E-1,1.014E1,6.9E1,1.371E1,4.1755173E-1,6.032041E1,-2.8251204E-1,1.9540139E-1,-2.9342777E-1,7.052886E-2,-2.6078412E-1,2.7214825E-1,-1.2108892E-1,2.766235E-1,-3.1933853E-1,-2.2124347E-1,-1.9116615E-1,2.347567E-1],"split_indices":[0,1,1,0,0,1,0,0,0,0,2,1,1,0,0,0,0,1,0,1,2,0,1,2,1,0,1,0,0,0,0,0,0,0,0,0,0,0,0],"split_type":[0,0,0,0,0,0,0,0,0,0,0,0,0,0,0,0,0,0,0,0,0,0,0,0,0,0,0,0,0,0,0,0,0,0,0,0,0,0,0],"sum_hessian":[6.2475256E2,2.563466E2,3.6840598E2,4.152283E1,2.1482376E2,9.589398E0,3.5881656E2,3.7712833E1,3.8099973E0,7.267683E0,2.3217154E0,9.999851E1,2.5881805E2,1.1812274E0,1.1404879E0,8.703881E1,1.2959697E1,2.2637688E2,3.2441185E1,4.1002327E1,4.6036484E1,7.41522E0,5.5444765E0,5.7433248E0,2.2063354E2,3.4495904E0,2.8991594E1,2.7290209E1,1.3712119E1,4.426096E1,1.7755241E0,2.4827323E0,3.0617442E0,4.693442E0,1.0498827E0,1.531565E2,6.747705E1,2.6079727E1,2.9118676E0],"tree_param":{"num_deleted":"0","num_feature":"3","num_nodes":"39","size_leaf_vector":"1"}},{"base_weights":[1.6098173E-2,9.888966E-1,-6.514841E-1,1.0172031E0,1.8962169E-1,8.359761E-1,-6.895881E-1,8.1637245E-1,3.1550983E-1,-7.124368E-1,3.4856504E-1,2.820256E-1,2.3682836E-2,-7.364844E-1,2.1704154E-5,2.9745892E-1,-1.8302673E-1,-2.473388E-1,-5.4513834E-2,-5.07129E-1,-9.516805E-1,9.0023685E-1,-4.1997895E-1,-6.6841644E-1,1.3033453E0,-1.0325971E0,-5.715951E-1,4.8097648E-2,3.0349946E-1,-7.037646E-1,2.4059811E-1,-2.1519597E-1,7.656559E-2,1.7503873E-1,5.4030246E-1,-3.2526467E-2,-3.1210637E-1,6.777257E-1,-2.6955184E-1,-2.4629821E-1,1.6409159E-3],"categories":[],"categories_nodes":[],"categories_segments":[],"categories_sizes":[],"default_left":[0,0,0,0,0,0,0,0,0,0,0,0,0,0,0,0,0,0,0,0,0,0,0,0,0,0,0,0,0,0,0,0,0,0,0,0,0,0,0,0,0],"id":7,"left_children":[1,3,5,7,9,11,13,15,-1,17,-1,-1,-1,19,21,-1,-1,-1,-1,23,25,27,29,31,33,35,37,-1,-1,39,-1,-1,-1,-1,-1,-1,-1,-1,-1,-1,-1],"loss_changes":[3.2301877E2,4.3867188E0,1.7295723E1,4.9420166E-1,7.977858E0,5.421028E-1,9.319305E0,8.873291E0,0E0,1.3847184E-1,0E0,0E0,0E0,1.2834534E1,7.6936035E0,0E0,0E0,0E0,0E0,3.963567E1,3.6559677E0,3.7152243E-1,5.3759966E0,5.718712E0,2.9609394E0,6.94397E-1,2.6527763E1,0E0,0E0,9.849744E-1,0E0,0E0,0E0,0E0,0E0,0E0,0E0,0E0,0E0,0E0,0E0],"parents":[2147483647,0,0,1,1,2,2,3,3,4,4,5,5,6,6,7,7,9,9,13,13,14,14,19,19,20,20,21,21,22,22,23,23,24,24,25,25,26,26,29,29],"right_children":[2,4,6,8,10,12,14,16,-1,18,-1,-1,-1,20,22,-1,-1,-1,-1,24,26,28,30,32,34,36,38,-1,-1,40,-1,-1,-1,-1,-1,-1,-1,-1,-1,-1,-1],"split_conditions":[9.9E0,1.6749239E0,7.587978E-1,3.8667706E-1,2.85E0,5.999E1,3.002327E1,9.919919E-1,3.1550983E-1,8.4E1,3.4856504E-1,2.820256E-1,2.3682836E-2,4.49E1,1.19E2,2.9745892E-1,-1.8302673E-1,-2.473388E-1,-5.4513834E-2,1.1525E1,1.9E1,3.1315123E1,8.163426E1,1.22E2,1.3851E1,3.6226857E0,6E1,4.8097648E-2,3.0349946E-1,2.19E2,2.4059811E-1,-2.1519597E-1,7.656559E-2,1.7503873E-1,5.4030246E-1,-3.2526467E-2,-3.1210637E-1,6.777257E-1,-2.6955184E-1,-2.4629821E-1,1.6409159E-3],"split_indices":[0,0,1,1,1,0,1,0,0,2,0,0,0,0,0,0,0,0,0,1,1,1,1,2,1,1,0,0,0,0,0,0,0,0,0,0,0,0,0,0,0],"split_type":[0,0,0,0,0,0,0,0,0,0,0,0,0,0,0,0,0,0,0,0,0,0,0,0,0,0,0,0,0,0,0,0,0,0,0,0,0,0,0,0,0],"sum_hessian":[4.9540146E2,2.014166E2,2.9398483E2,1.9426405E2,7.152552E0,6.819864E0,2.8716498E2,3.2092663E1,1.6217139E2,3.84885E0,3.3037019E0,5.7827964E0,1.0370675E0,2.688164E2,1.834858E1,2.8854483E1,3.2381809E0,2.7210255E0,1.1278245E0,1.3175204E2,1.3706436E2,5.473483E0,1.2875095E1,1.2155411E2,1.0197931E1,1.1159097E2,2.547339E1,1.0356069E0,4.437876E0,1.0792717E1,2.0823789E0,1.15653984E2,5.900123E0,5.056284E0,5.1416473E0,1.0535561E0,1.10537415E2,2.025391E0,2.3448E1,9.126601E0,1.6661153E0],"tree_param":{"num_deleted":"0","num_feature":"3","num_nodes":"41","size_leaf_vector":"1"}},{"base_weights":[2.0554926E-2,9.955633E-1,-5.5757976E-1,7.7461004E-1,3.1018743E-1,7.1240085E-1,-5.954414E-1,9.9086595E-1,-1.3436474E-1,2.599541E-1,1.994651E-1,-2.7933073E-1,-7.326667E-1,3.1042767E-1,3.9401972E-1,-8.0696285E-2,1.7297119E-1,-5.121466E-1,9.824297E-1,-9.098411E-1,-3.2143992E-1,1.650536E-1,1.1215299E-2,-2.1949448E-1,-8.010628E-1,4.4640908E-1,1.4289871E-1,1.077703E-1,-9.528689E-1,5.36039E-1,-5.7697725E-1,-1.6573632E-1,4.702148E-1,-2.6800084E-1,-2.428392E-2,-2.2059657E-1,2.1921393E-1,-1.2716503E-1,1.6325003E-1,-3.0848297E-1,-2.0304811E-1,-2.9618427E-1,-3.671428E-2],"categories":[],"categories_nodes":[],"categories_segments":[],"categories_sizes":[],"default_left":[0,0,0,0,0,0,0,0,0,0,0,0,0,0,0,0,0,0,0,0,0,0,0,0,0,0,0,0,0,0,0,0,0,0,0,0,0,0,0,0,0,0,0],"id":8,"left_children":[1,3,5,7,-1,9,11,13,-1,-1,15,17,19,-1,21,-1,-1,23,25,27,29,-1,-1,31,33,-1,35,37,39,-1,41,-1,-1,-1,-1,-1,-1,-1,-1,-1,-1,-1,-1],"loss_changes":[2.237543E2,4.525299E-1,1.2407257E1,7.2804956E0,0E0,4.3346834E-1,1.031646E1,1.7607689E-1,0E0,0E0,6.9761246E-1,2.2545029E1,1.1984901E1,0E0,1.5438849E-1,0E0,0E0,5.2357597E0,4.894141E0,5.235344E0,2.919929E1,0E0,0E0,2.0602713E1,2.042694E0,0E0,3.4428573E0,1.5424229E0,1.6472397E0,0E0,8.718429E0,0E0,0E0,0E0,0E0,0E0,0E0,0E0,0E0,0E0,0E0,0E0,0E0],"parents":[2147483647,0,0,1,1,2,2,3,3,5,5,6,6,7,7,10,10,11,11,12,12,14,14,17,17,18,18,19,19,20,20,23,23,24,24,26,26,27,27,28,28,30,30],"right_children":[2,4,6,8,-1,10,12,14,-1,-1,16,18,20,-1,22,-1,-1,24,26,28,30,-1,-1,32,34,-1,36,38,40,-1,42,-1,-1,-1,-1,-1,-1,-1,-1,-1,-1,-1,-1],"split_conditions":[1.6749239E0,3.8667706E-1,1E0,2.9E-1,3.1018743E-1,1.2340465E-1,3.4E1,8.981083E-3,-1.3436474E-1,2.599541E-1,6.3E1,8.595302E0,1.601E1,3.1042767E-1,8.550784E-3,-8.0696285E-2,1.7297119E-1,2.199E1,2.999E1,4.82E0,5.599E1,1.650536E-1,1.1215299E-2,6.095122E0,3E1,4.4640908E-1,1.014E1,2.8E1,1.3E1,5.36039E-1,2.5E1,-1.6573632E-1,4.702148E-1,-2.6800084E-1,-2.428392E-2,-2.2059657E-1,2.1921393E-1,-1.2716503E-1,1.6325003E-1,-3.0848297E-1,-2.0304811E-1,-2.9618427E-1,-3.671428E-2],"split_indices":[0,1,1,1,0,1,0,1,0,0,2,1,1,0,0,0,0,0,0,1,0,0,0,1,0,0,1,2,1,0,1,0,0,0,0,0,0,0,0,0,0,0,0],"split_type":[0,0,0,0,0,0,0,0,0,0,0,0,0,0,0,0,0,0,0,0,0,0,0,0,0,0,0,0,0,0,0,0,0,0,0,0,0,0,0,0,0,0,0],"sum_hessian":[3.949636E2,1.4675063E2,2.4821297E2,2.4860237E1,1.2189038E2,6.669936E0,2.4154303E2,2.1284527E1,3.5757098E0,4.5988727E0,2.0710638E0,7.403418E1,1.6750885E2,1.9143013E1,2.141514E0,1.0515273E0,1.0195365E0,6.300315E1,1.1031032E1,1.1622257E2,5.1286278E1,1.1119399E0,1.029574E0,3.217342E1,3.0829733E1,6.402641E0,4.628391E0,4.653849E0,1.11568726E2,4.8965344E0,4.6389744E1,2.7702305E1,4.4711146E0,2.711479E1,3.7149432E0,1.7551607E0,2.87323E0,2.1108782E0,2.542971E0,8.5489944E1,2.6078775E1,2.376682E1,2.2622921E1],"tree_param":{"num_deleted":"0","num_feature":"3","num_nodes":"43","size_leaf_vector":"1"}},{"base_weights":[2.254119E-2,9.1240436E-1,-5.346575E-1,4.67118E-1,1.0668662E0,5.790198E-1,-5.8540475E-1,2.846128E-1,-6.548099E-1,3.059193E-1,5.1788324E-1,7.9570985E-1,2.168712E-2,-6.434457E-1,4.896833E-2,-2.5136492E-1,-2.7101833E-1,4.550967E-1,2.0764132E-1,-1.9429132E-1,2.5465E-1,-4.2148665E-1,-8.6597836E-1,8.002769E-1,-3.2557815E-1,-1.6219231E-1,7.727625E-2,2.2210225E-1,-2.0401995E-1,-5.9705114E-1,1.0190098E0,-9.7945505E-1,-4.29827E-1,4.3445215E-2,2.7220744E-1,-5.7430947E-1,2.557826E-1,-1.9721566E-1,9.829922E-2,8.3686076E-2,3.8609853E-1,-3.1273693E-2,-2.9776186E-1,2.3898819E-1,-2.863309E-1,-6.485628E-2,-2.718054E-1],"categories":[],"categories_nodes":[],"categories_segments":[],"categories_sizes":[],"default_left":[0,0,0,0,0,0,0,0,0,0,0,0,0,0,0,0,0,0,0,0,0,0,0,0,0,0,0,0,0,0,0,0,0,0,0,0,0,0,0,0,0,0,0,0,0,0,0],"id":9,"left_children":[1,3,5,7,9,11,13,-1,15,-1,-1,17,19,21,23,25,-1,-1,27,-1,-1,29,31,33,35,-1,-1,-1,-1,37,39,41,43,-1,-1,45,-1,-1,-1,-1,-1,-1,-1,-1,-1,-1,-1],"loss_changes":[1.5856857E2,7.970688E0,1.1454956E1,1.8716793E1,1.0569458E0,1.0786753E0,6.9761505E0,0E0,8.4102297E-1,0E0,0E0,2.4446716E0,2.5253615E0,8.173744E0,4.9710627E0,9.4104254E-1,0E0,0E0,2.7461805E0,0E0,0E0,2.2989126E1,3.8045654E0,2.7976036E-1,3.971558E0,0E0,0E0,0E0,0E0,4.651598E0,1.6209469E0,6.63414E-1,1.32482605E1,0E0,0E0,1.0405071E0,0E0,0E0,0E0,0E0,0E0,0E0,0E0,0E0,0E0,0E0,0E0],"parents":[2147483647,0,0,1,1,2,2,3,3,4,4,5,5,6,6,8,8,11,11,12,12,13,13,14,14,15,15,18,18,21,21,22,22,23,23,24,24,29,29,30,30,31,31,32,32,35,35],"right_children":[2,4,6,8,10,12,14,-1,16,-1,-1,18,20,22,24,26,-1,-1,28,-1,-1,30,32,34,36,-1,-1,-1,-1,38,40,42,44,-1,-1,46,-1,-1,-1,-1,-1,-1,-1,-1,-1,-1,-1],"split_conditions":[1.299E1,3.705E0,2.3844104E0,1E0,7.99E0,5.2E1,3.002327E1,2.846128E-1,6.093993E0,3.059193E-1,5.1788324E-1,2.999E1,9.8E1,4.49E1,1.19E2,9.1452616E-1,-2.7101833E-1,4.550967E-1,1.2340465E-1,-1.9429132E-1,2.5465E-1,1.1525E1,1.9E1,3.1315123E1,1.0871797E2,-1.6219231E-1,7.727625E-2,2.2210225E-1,-2.0401995E-1,1.22E2,1.2771803E1,4.586E0,7.499E1,4.3445215E-2,2.7220744E-1,4E1,2.557826E-1,-1.9721566E-1,9.829922E-2,8.3686076E-2,3.8609853E-1,-3.1273693E-2,-2.9776186E-1,2.3898819E-1,-2.863309E-1,-6.485628E-2,-2.718054E-1],"split_indices":[0,1,1,0,0,2,1,0,0,0,0,0,2,0,0,1,0,0,1,0,0,1,1,1,1,0,0,0,0,2,1,1,0,0,0,2,0,0,0,0,0,0,0,0,0,0,0],"split_type":[0,0,0,0,0,0,0,0,0,0,0,0,0,0,0,0,0,0,0,0,0,0,0,0,0,0,0,0,0,0,0,0,0,0,0,0,0,0,0,0,0,0,0,0,0,0,0],"sum_hessian":[3.178201E2,1.2213281E2,1.956873E2,3.249104E1,8.964178E1,8.074654E0,1.8761264E2,2.2840899E1,9.650139E0,8.6038124E1,3.603651E0,5.5061574E0,2.5684965E0,1.718731E2,1.5739553E1,4.445849E0,5.2042904E0,1.763533E0,3.7426243E0,1.5396426E0,1.0288539E0,8.7496346E1,8.437675E1,4.858053E0,1.08815E1,2.794985E0,1.6508636E0,2.4427667E0,1.2998575E0,7.851289E1,8.983451E0,6.596775E1,1.8408998E1,1.0125422E0,3.845511E0,9.407909E0,1.4735901E0,7.397536E1,4.5375385E0,2.930804E0,6.0526476E0,1.1037776E0,6.4863976E1,5.359893E0,1.3049105E1,5.3180895E0,4.0898204E0],"tree_param":{"num_deleted":"0","num_feature":"3","num_nodes":"47","size_leaf_vector":"1"}},{"base_weights":[2.63438E-2,9.576195E-1,-4.2725354E-1,6.841671E-1,3.0248716E-1,-9.417775E-2,-5.805888E-1,9.3641543E-1,-1.1359855E-1,-4.317184E-1,8.086337E-1,3.482281E-1,-6.523022E-1,3.023016E-1,6.70565E-2,1.826811E-1,-6.161298E-1,4.385616E-1,1.6283916E-1,1.7056555E-2,3.320302E-1,-9.339763E-1,-2.6823536E-1,-7.1419203E-1,4.0313363E-1,7.1560603E-1,-7.56596E-1,-5.4940844E-1,3.6627188E-1,2.0444876E-1,-3.403899E-1,-6.243802E-1,-9.966812E-1,1.2187544E0,-5.0502926E-1,-3.8374655E-2,-2.5288546E-1,4.0806794E-1,-1.36819E-1,-2.5262678E-1,-1.5005003E-2,-1.9981132E-1,4.3183523E-3,-2.0431109E-1,-4.7058086E-3,-2.877288E-1,4.2321083E-1,-1.0685248E-1,-3.0465227E-1,4.151215E-1,1.4619777E-1,-2.7274576E-1,-2.0878946E-2],"categories":[],"categories_nodes":[],"categories_segments":[],"categories_sizes":[],"default_left":[0,0,0,0,0,0,0,0,0,0,0,0,0,0,0,0,0,0,0,0,0,0,0,0,0,0,0,0,0,0,0,0,0,0,0,0,0,0,0,0,0,0,0,0,0,0,0,0,0,0,0,0,0],"id":10,"left_children":[1,3,5,7,-1,9,11,13,-1,15,17,19,21,-1,-1,23,25,-1,27,29,-1,31,33,35,-1,37,39,41,-1,-1,43,45,47,49,51,-1,-1,-1,-1,-1,-1,-1,-1,-1,-1,-1,-1,-1,-1,-1,-1,-1,-1],"loss_changes":[1.0956606E2,4.8718262E-1,8.855381E0,4.748868E0,0E0,1.7472195E1,8.171555E0,4.6230125E-1,0E0,4.820354E0,6.359473E0,2.292392E0,1.1765129E1,0E0,0E0,1.17519455E1,6.5624847E0,0E0,7.4455166E0,1.9942752E0,0E0,6.137886E-1,1.7656277E1,3.8285446E-1,0E0,3.328016E0,1.7460804E0,4.0823853E-1,0E0,0E0,5.967355E-1,1.0481581E1,2.5655365E-1,1.6327667E-1,7.4074755E0,0E0,0E0,0E0,0E0,0E0,0E0,0E0,0E0,0E0,0E0,0E0,0E0,0E0,0E0,0E0,0E0,0E0,0E0],"parents":[2147483647,0,0,1,1,2,2,3,3,5,5,6,6,7,7,9,9,10,10,11,11,12,12,15,15,16,16,18,18,19,19,21,21,22,22,23,23,25,25,26,26,27,27,30,30,31,31,32,32,33,33,34,34],"right_children":[2,4,6,8,-1,10,12,14,-1,16,18,20,22,-1,-1,24,26,-1,28,30,-1,32,34,36,-1,38,40,42,-1,-1,44,46,48,50,52,-1,-1,-1,-1,-1,-1,-1,-1,-1,-1,-1,-1,-1,-1,-1,-1,-1,-1],"split_conditions":[1.6749239E0,3.8667706E-1,3.2E1,2.9E-1,3.0248716E-1,7.325E0,4.82E0,8.981083E-3,-1.1359855E-1,1.299E1,2.599E1,7.6E1,1.436983E1,3.023016E-1,6.70565E-2,3.705E0,2.3844104E0,4.385616E-1,1.0545E1,8.981083E-3,3.320302E-1,3.9E1,5.299E1,6.093993E0,4.0313363E-1,5.2E1,6.768792E0,8.2E1,3.6627188E-1,2.0444876E-1,2.57E0,1.2002061E1,5.881555E0,4.9E1,2.4239115E1,-3.8374655E-2,-2.5288546E-1,4.0806794E-1,-1.36819E-1,-2.5262678E-1,-1.5005003E-2,-1.9981132E-1,4.3183523E-3,-2.0431109E-1,-4.7058086E-3,-2.877288E-1,4.2321083E-1,-1.0685248E-1,-3.0465227E-1,4.151215E-1,1.4619777E-1,-2.7274576E-1,-2.0878946E-2],"split_indices":[0,1,0,1,0,1,1,1,0,0,0,2,1,0,0,1,1,0,1,1,0,0,0,0,0,2,1,2,0,0,1,1,1,0,1,0,0,0,0,0,0,0,0,0,0,0,0,0,0,0,0,0,0],"split_type":[0,0,0,0,0,0,0,0,0,0,0,0,0,0,0,0,0,0,0,0,0,0,0,0,0,0,0,0,0,0,0,0,0,0,0,0,0,0,0,0,0,0,0,0,0,0,0,0,0,0,0,0,0],"sum_hessian":[2.574059E2,8.394605E1,1.7345987E2,1.53906555E1,6.85554E1,5.5190006E1,1.1826987E2,1.2534659E1,2.8559954E0,4.0550797E1,1.4639213E1,8.200671E0,1.100692E2,1.1019703E1,1.5149572E0,9.363618E0,3.1187178E1,6.6494446E0,7.9897676E0,6.4201684E0,1.7805029E0,6.267306E1,4.7396133E1,5.500068E0,3.8635492E0,2.5849745E0,2.8602203E1,5.0625854E0,2.9271824E0,1.9286082E0,4.4915605E0,1.2401243E1,5.0271816E1,5.941091E0,4.1455044E1,1.3493874E0,4.150681E0,1.5637254E0,1.021249E0,2.5343914E1,3.2582898E0,4.0445843E0,1.018001E0,1.6564102E0,2.83515E0,1.1103705E1,1.2975384E0,2.0042021E0,4.8267616E1,4.1199503E0,1.8211411E0,2.0936264E1,2.0518778E1],"tree_param":{"num_deleted":"0","num_feature":"3","num_nodes":"53","size_leaf_vector":"1"}},{"base_weights":[2.9918645E-2,9.374265E-1,-3.750517E-1,6.342589E-1,2.9926056E-1,-7.251306E-2,-5.180388E-1,2.973921E-1,-1.3154313E-1,-3.748405E-1,6.991301E-1,-7.094343E-1,-1.650286E-1,2.010045E-1,-2.3363477E-1,1.565812E-1,-5.401368E-1,3.7373692E-1,1.484719E-1,3.0676666E-1,-8.515419E-1,3.7175477E-1,-3.7095103E-1,-6.4384514E-1,3.4534943E-1,6.191861E-1,-6.775905E-1,-6.163674E-1,2.7513033E-1,1.4806149E-2,2.8814363E-1,-2.8908607E-1,-4.917468E-1,-8.829885E-1,-2.7640434E-2,-3.2188337E-2,-2.3479222E-1,2.530571E-1,1.5039471E-2,-2.3982567E-1,-1.1990554E-2,-7.914072E-3,-2.3228246E-1,1.8948445E-1,-8.661459E-2,2.3892356E-1,-2.8171447E-1,-2.8489387E-1,-2.161944E-2,3.035983E-1,-7.969046E-2],"categories":[],"categories_nodes":[],"categories_segments":[],"categories_sizes":[],"default_left":[0,0,0,0,0,0,0,0,0,0,0,0,0,0,0,0,0,0,0,0,0,0,0,0,0,0,0,0,0,0,0,0,0,0,0,0,0,0,0,0,0,0,0,0,0,0,0,0,0,0,0],"id":11,"left_children":[1,3,5,7,-1,9,11,-1,13,15,17,19,21,-1,-1,23,25,-1,27,29,31,-1,33,35,-1,37,39,41,-1,43,-1,-1,45,47,49,-1,-1,-1,-1,-1,-1,-1,-1,-1,-1,-1,-1,-1,-1,-1,-1],"loss_changes":[7.709148E1,5.465965E-1,6.239071E0,3.809033E0,0E0,1.1396756E1,6.5288887E0,0E0,3.1992831E0,3.1541467E0,3.9646325E0,9.428312E0,1.0836122E1,0E0,0E0,7.9583488E0,4.7027173E0,0E0,5.2698746E0,1.6124992E0,1.782608E0,0E0,5.6122675E0,3.3786702E-1,0E0,3.881241E-1,1.8717556E0,4.0899134E-1,0E0,1.4755336E0,0E0,0E0,9.582542E0,6.2549686E-1,5.2736607E0,0E0,0E0,0E0,0E0,0E0,0E0,0E0,0E0,0E0,0E0,0E0,0E0,0E0,0E0,0E0,0E0],"parents":[2147483647,0,0,1,1,2,2,3,3,5,5,6,6,8,8,9,9,10,10,11,11,12,12,15,15,16,16,18,18,19,19,20,20,22,22,23,23,25,25,26,26,27,27,29,29,32,32,33,33,34,34],"right_children":[2,4,6,8,-1,10,12,-1,14,16,18,20,22,-1,-1,24,26,-1,28,30,32,-1,34,36,-1,38,40,42,-1,44,-1,-1,46,48,50,-1,-1,-1,-1,-1,-1,-1,-1,-1,-1,-1,-1,-1,-1,-1,-1],"split_conditions":[1.6749239E0,3.8667706E-1,3.2E1,8.981083E-3,2.9926056E-1,7.325E0,1.601E1,2.973921E-1,7.7411555E-2,1.299E1,2.599E1,4.82E0,5.599E1,2.010045E-1,-2.3363477E-1,3.705E0,2.3844104E0,3.7373692E-1,1.014E1,7.6E1,1.3E1,3.7175477E-1,2.5E1,6.093993E0,3.4534943E-1,5E1,2.999E1,2E1,2.7513033E-1,8.981083E-3,2.8814363E-1,-2.8908607E-1,4.49E1,9E1,8.9E1,-3.2188337E-2,-2.3479222E-1,2.530571E-1,1.5039471E-2,-2.3982567E-1,-1.1990554E-2,-7.914072E-3,-2.3228246E-1,1.8948445E-1,-8.661459E-2,2.3892356E-1,-2.8171447E-1,-2.8489387E-1,-2.161944E-2,3.035983E-1,-7.969046E-2],"split_indices":[0,1,0,1,0,1,1,0,0,0,0,1,0,0,0,1,1,0,1,2,1,0,1,0,0,2,0,2,0,1,0,0,0,2,0,0,0,0,0,0,0,0,0,0,0,0,0,0,0,0,0],"split_type":[0,0,0,0,0,0,0,0,0,0,0,0,0,0,0,0,0,0,0,0,0,0,0,0,0,0,0,0,0,0,0,0,0,0,0,0,0,0,0,0,0,0,0,0,0,0,0,0,0,0,0],"sum_hessian":[2.0780821E2,6.371436E1,1.4409386E2,1.24537525E1,5.1260605E1,4.672921E1,9.736465E1,8.2928295E0,4.1609235E0,3.3944206E1,1.2785005E1,6.2479675E1,3.4884968E1,1.843141E0,2.3177824E0,8.065771E0,2.5878433E1,5.7823143E0,7.002691E0,7.523191E0,5.4956486E1,3.819769E0,3.1065199E1,4.664499E0,3.401272E0,2.3715363E0,2.3506897E1,3.609291E0,3.3933997E0,5.907456E0,1.6157353E0,4.0623703E1,1.4332781E1,1.1837678E1,1.9227522E1,1.3230276E0,3.3414712E0,1.3550229E0,1.0165133E0,1.9522959E1,3.9839392E0,1.0084596E0,2.6008313E0,1.5917616E0,4.3156943E0,3.493E0,1.0839781E1,1.0780458E1,1.0572191E0,2.9758575E0,1.6251665E1],"tree_param":{"num_deleted":"0","num_feature":"3","num_nodes":"51","size_leaf_vector":"1"}},{"base_weights":[3.3658296E-2,9.224363E-1,-3.2543793E-1,6.0393214E-1,2.9605684E-1,-9.8386906E-2,-4.8741415E-1,2.913817E-1,-1.1068991E-1,-2.285798E-1,3.1703576E-1,-8.084246E-1,-1.8156262E-1,1.8618302E-1,-6.787207E-1,3.228562E-1,-2.943666E-1,3.929466E-1,-9.611903E-1,8.825496E-1,-3.5542524E-1,-6.495005E-2,-2.4245223E-1,-4.4966048E-1,2.0969028E-2,-6.1189685E-2,2.613865E-1,-9.840941E-2,-2.973809E-1,3.414197E-1,6.942527E-2,-8.6798555E-1,-3.4242727E-2,4.0697426E-2,-1.8755554E-1,3.6571908E-1,-1.4276531E-1,-2.818388E-1,-9.507673E-3,3.6736277E-1,-6.530863E-2],"categories":[],"categories_nodes":[],"categories_segments":[],"categories_sizes":[],"default_left":[0,0,0,0,0,0,0,0,0,0,0,0,0,0,0,0,0,0,0,0,0,0,0,0,0,0,0,0,0,0,0,0,0,0,0,0,0,0,0,0,0],"id":12,"left_children":[1,3,5,7,-1,9,11,-1,13,15,-1,17,19,-1,21,-1,23,25,27,29,31,-1,-1,33,35,-1,-1,-1,-1,-1,-1,37,39,-1,-1,-1,-1,-1,-1,-1,-1],"loss_changes":[5.4561653E1,4.1318893E-1,4.432556E0,2.9561765E0,0E0,8.058827E0,6.8095284E0,0E0,2.3245795E0,4.3970737E0,0E0,6.6689396E0,7.2648606E0,0E0,7.9193115E-3,0E0,2.2639458E0,1.4845796E0,2.5955963E-1,6.623006E-1,5.40428E0,0E0,0E0,3.258594E0,1.0192056E1,0E0,0E0,0E0,0E0,0E0,0E0,7.278662E-1,5.1930895E0,0E0,0E0,0E0,0E0,0E0,0E0,0E0,0E0],"parents":[2147483647,0,0,1,1,2,2,3,3,5,5,6,6,8,8,9,9,11,11,12,12,14,14,16,16,17,17,18,18,19,19,20,20,23,23,24,24,31,31,32,32],"right_children":[2,4,6,8,-1,10,12,-1,14,16,-1,18,20,-1,22,-1,24,26,28,30,32,-1,-1,34,36,-1,-1,-1,-1,-1,-1,38,40,-1,-1,-1,-1,-1,-1,-1,-1],"split_conditions":[1.6749239E0,3.8667706E-1,3.9E1,8.981083E-3,2.9605684E-1,1.09E1,1.436983E1,2.913817E-1,7.7411555E-2,7E0,3.1703576E-1,4.07E0,5.299E1,1.8618302E-1,3.3E1,3.228562E-1,6.768792E0,2.8E1,5.881555E0,4.9E1,2.25E1,-6.495005E-2,-2.4245223E-1,1.299E1,2.4E1,-6.1189685E-2,2.613865E-1,-9.840941E-2,-2.973809E-1,3.414197E-1,6.942527E-2,9.2E1,7.9E1,4.0697426E-2,-1.8755554E-1,3.6571908E-1,-1.4276531E-1,-2.818388E-1,-9.507673E-3,3.6736277E-1,-6.530863E-2],"split_indices":[0,1,0,1,0,1,1,0,0,2,0,1,0,0,2,0,1,2,1,0,1,0,0,0,0,0,0,0,0,0,0,2,0,0,0,0,0,0,0,0,0],"split_type":[0,0,0,0,0,0,0,0,0,0,0,0,0,0,0,0,0,0,0,0,0,0,0,0,0,0,0,0,0,0,0,0,0,0,0,0,0,0,0,0,0],"sum_hessian":[1.6901503E2,4.8185402E1,1.2082963E2,9.851679E0,3.833372E1,5.0978146E1,6.985148E1,6.2696986E0,3.5819807E0,4.653552E1,4.442627E0,3.3279427E1,3.657205E1,1.5254745E0,2.0565062E0,1.4964914E0,4.503903E1,3.577018E0,2.970241E1,4.5637646E0,3.2008286E1,1.0346496E0,1.0218564E0,2.9892061E1,1.5146968E1,1.8464597E0,1.7305584E0,1.8870147E0,2.7815395E1,2.7405121E0,1.8232526E0,1.1674702E1,2.0333584E1,6.9484215E0,2.294364E1,4.014054E0,1.1132915E1,1.0641794E1,1.032907E0,1.8645751E0,1.846901E1],"tree_param":{"num_deleted":"0","num_feature":"3","num_nodes":"41","size_leaf_vector":"1"}},{"base_weights":[3.8622007E-2,9.014144E-1,-2.672933E-1,5.563334E-1,2.9261327E-1,-3.0321145E-1,7.0180726E-1,2.8360507E-1,-1.1139696E-1,-6.628825E-2,-4.937624E-1,2.561329E-1,8.530289E-2,1.7213441E-1,-1.8226671E-1,-1.8899763E-1,7.9323244E-1,-7.9268056E-1,-2.1594125E-1,2.1884085E-1,-2.4908915E-1,2.7681372E-1,2.9008524E-2,-2.1657104E-2,-2.9236218E-1,6.64274E-1,-4.2333505E-1,-1.0164196E-1,1.0269576E-1,-1.7144376E-1,9.010892E-2,6.499741E-2,3.321744E-1,-2.1612896E-1,1.0798858E-2],"categories":[],"categories_nodes":[],"categories_segments":[],"categories_sizes":[],"default_left":[0,0,0,0,0,0,0,0,0,0,0,0,0,0,0,0,0,0,0,0,0,0,0,0,0,0,0,0,0,0,0,0,0,0,0],"id":13,"left_children":[1,3,5,7,-1,9,11,-1,13,15,17,-1,-1,-1,-1,19,21,23,25,-1,27,-1,-1,29,-1,31,33,-1,-1,-1,-1,-1,-1,-1,-1],"loss_changes":[3.799448E1,4.188118E-1,3.915288E0,2.4370196E0,0E0,4.629259E0,1.7546177E-2,0E0,1.7761048E0,5.1267304E0,4.5689526E0,0E0,0E0,0E0,0E0,2.5052369E0,4.5978522E-1,3.7817307E0,5.932556E0,0E0,2.2521212E0,0E0,0E0,1.2691728E0,0E0,1.0077908E0,3.5283213E0,0E0,0E0,0E0,0E0,0E0,0E0,0E0,0E0],"parents":[2147483647,0,0,1,1,2,2,3,3,5,5,6,6,8,8,9,9,10,10,15,15,16,16,17,17,18,18,20,20,23,23,25,25,26,26],"right_children":[2,4,6,8,-1,10,12,-1,14,16,18,-1,-1,-1,-1,20,22,24,26,-1,28,-1,-1,30,-1,32,34,-1,-1,-1,-1,-1,-1,-1,-1],"split_conditions":[1.6749239E0,3.8667706E-1,2.19E2,8.981083E-3,2.9261327E-1,3.9E1,4.3E1,2.8360507E-1,7.7411555E-2,1.0545E1,1.436983E1,2.561329E-1,8.530289E-2,1.7213441E-1,-1.8226671E-1,7E0,3.535842E1,5.881555E0,5.599E1,2.1884085E-1,1.15E2,2.7681372E-1,2.9008524E-2,4E1,-2.9236218E-1,1.7424408E1,3.002327E1,-1.0164196E-1,1.0269576E-1,-1.7144376E-1,9.010892E-2,6.499741E-2,3.321744E-1,-2.1612896E-1,1.0798858E-2],"split_indices":[0,1,0,1,0,0,2,0,0,1,1,0,0,0,0,2,0,1,0,0,2,0,0,0,0,1,1,0,0,0,0,0,0,0,0],"split_type":[0,0,0,0,0,0,0,0,0,0,0,0,0,0,0,0,0,0,0,0,0,0,0,0,0,0,0,0,0,0,0,0,0,0,0],"sum_hessian":[1.4203757E2,3.6669533E1,1.05368034E2,7.9764624E0,2.8693071E1,1.0226487E2,3.103163E0,4.777403E0,3.19906E0,4.618643E1,5.607844E1,1.5087769E0,1.594386E0,1.2778901E0,1.9211698E0,4.1099045E1,5.0873876E0,2.6120842E1,2.9957598E1,1.8397737E0,3.925927E1,4.0161147E0,1.0712725E0,5.1988025E0,2.092204E1,5.292471E0,2.4665127E1,3.4458927E1,4.8003426E0,1.6340802E0,3.5647223E0,3.3731112E0,1.9193597E0,1.4632448E1,1.0032679E1],"tree_param":{"num_deleted":"0","num_feature":"3","num_nodes":"35","size_leaf_vector":"1"}},{"base_weights":[4.198762E-2,8.800003E-1,-2.1070148E-1,5.195671E-1,2.8868058E-1,-7.0954543E-1,-1.426571E-1,2.7356535E-1,-8.48387E-2,-2.3280543E-1,-2.7286646E-1,5.6492686E-1,-1.8917066E-1,1.5900017E-1,-1.5291616E-1,-2.057541E-1,1.9356942E-1,-2.3345017E-1,8.3508843E-1,-2.8832436E-1,3.2276028E-1,3.5161293E-1,6.964405E-2,-5.7600006E-2,-2.6351577E-1,2.742971E-1,-1.5841326E-1],"categories":[],"categories_nodes":[],"categories_segments":[],"categories_sizes":[],"default_left":[0,0,0,0,0,0,0,0,0,0,0,0,0,0,0,0,0,0,0,0,0,0,0,0,0,0,0],"id":14,"left_children":[1,3,5,7,-1,9,11,-1,13,15,-1,-1,17,-1,-1,-1,-1,19,21,23,25,-1,-1,-1,-1,-1,-1],"loss_changes":[2.6602936E1,3.6278915E-1,3.179706E0,1.8748538E0,0E0,8.705387E-1,8.488574E0,0E0,1.2886093E0,2.3115523E0,0E0,0E0,4.0626936E0,0E0,0E0,0E0,0E0,2.611918E0,4.9026704E-1,4.130779E0,4.450149E0,0E0,0E0,0E0,0E0,0E0,0E0],"parents":[2147483647,0,0,1,1,2,2,3,3,5,5,6,6,8,8,9,9,12,12,17,17,18,18,19,19,20,20],"right_children":[2,4,6,8,-1,10,12,-1,14,16,-1,-1,18,-1,-1,-1,-1,20,22,24,26,-1,-1,-1,-1,-1,-1],"split_conditions":[1.6749239E0,3.8667706E-1,4E0,8.981083E-3,2.8868058E-1,4.5E1,7E0,2.7356535E-1,7.7411555E-2,3E0,-2.7286646E-1,5.6492686E-1,2.19E2,1.5900017E-1,-1.5291616E-1,-2.057541E-1,1.9356942E-1,1.15E2,4.3E1,6.7E1,1.29E2,3.5161293E-1,6.964405E-2,-5.7600006E-2,-2.6351577E-1,2.742971E-1,-1.5841326E-1],"split_indices":[0,1,2,1,0,0,2,0,0,2,0,0,0,0,0,0,0,2,2,2,2,0,0,0,0,0,0],"split_type":[0,0,0,0,0,0,0,0,0,0,0,0,0,0,0,0,0,0,0,0,0,0,0,0,0,0,0],"sum_hessian":[1.23754135E2,2.809568E1,9.5658455E1,6.580545E0,2.1515135E1,1.0350395E1,8.530806E1,3.681906E0,2.8986392E0,3.6985493E0,6.6518464E0,1.028541E0,8.427952E1,1.0834254E0,1.8152138E0,2.5841095E0,1.1144397E0,8.1527115E1,2.752402E0,7.464452E1,6.8825927E0,1.1601667E0,1.5922353E0,6.530863E1,9.335889E0,4.015773E0,2.8668199E0],"tree_param":{"num_deleted":"0","num_feature":"3","num_nodes":"27","size_leaf_vector":"1"}},{"base_weights":[4.442168E-2,7.2921365E-1,-1.9480076E-1,1.731436E-1,3.0495209E-1,4.853943E-1,-2.4615408E-1,7.020429E-1,-4.3405235E-1,6.3657814E-1,-3.716983E-2,-3.2273713E-1,2.4219552E-1,2.4281335E-1,4.907104E-2,1.830967E-2,-1.934397E-1,8.744549E-1,1.5639089E-3,-1.4927557E-1,-5.8003885E-1,2.6593432E-1,-7.6594464E-2,3.37578E-1,6.546189E-2,-2.6680288E-1,8.133734E-1,-8.8944936E-1,-1.8142697E-1,-4.1621825E-1,5.495046E-1,-2.0981357E-2,-1.9825286E-1,6.811134E-2,2.972703E-1,-2.8352252E-1,-1.8398745E-2,1.9065434E-1,-2.1018268E-1,-3.8658224E-2,-2.0748408E-1,3.595397E-2,2.1687423E-1],"categories":[],"categories_nodes":[],"categories_segments":[],"categories_sizes":[],"default_left":[0,0,0,0,0,0,0,0,0,0,0,0,0,0,0,0,0,0,0,0,0,0,0,0,0,0,0,0,0,0,0,0,0,0,0,0,0,0,0,0,0,0,0],"id":15,"left_children":[1,3,5,7,-1,9,11,13,15,17,-1,19,21,-1,-1,-1,-1,23,-1,25,27,-1,29,-1,-1,31,33,35,37,39,41,-1,-1,-1,-1,-1,-1,-1,-1,-1,-1,-1,-1],"loss_changes":[1.8638762E1,4.527627E0,3.0699613E0,3.9127991E0,0E0,6.560626E-1,3.040254E0,2.3674226E-1,6.4955103E-1,7.73891E-1,0E0,2.9882774E0,2.3903425E0,0E0,0E0,0E0,0E0,3.7311888E-1,0E0,5.0251136E0,3.217494E0,0E0,2.032998E0,0E0,0E0,2.9501765E0,2.820468E-1,6.407232E-1,6.05597E0,3.9125276E-1,1.6780663E-1,0E0,0E0,0E0,0E0,0E0,0E0,0E0,0E0,0E0,0E0,0E0,0E0],"parents":[2147483647,0,0,1,1,2,2,3,3,5,5,6,6,7,7,8,8,9,9,11,11,12,12,17,17,19,19,20,20,22,22,25,25,26,26,27,27,28,28,29,29,30,30],"right_children":[2,4,6,8,-1,10,12,14,16,18,-1,20,22,-1,-1,-1,-1,24,-1,26,28,-1,30,-1,-1,32,34,36,38,40,42,-1,-1,-1,-1,-1,-1,-1,-1,-1,-1,-1,-1],"split_conditions":[1.299E1,3.705E0,2.3844104E0,1E0,3.0495209E-1,5.299E1,3.56859E1,7.7411555E-2,1E0,5.2E1,-3.716983E-2,4.5E1,1.19E2,2.4281335E-1,4.907104E-2,1.830967E-2,-1.934397E-1,2.999E1,1.5639089E-3,1.286E1,1.7424408E1,2.6593432E-1,6.032041E1,3.37578E-1,6.546189E-2,3.4E1,1.3851E1,8.999E1,7.9E1,4E1,1.0871797E2,-2.0981357E-2,-1.9825286E-1,6.811134E-2,2.972703E-1,-2.8352252E-1,-1.8398745E-2,1.9065434E-1,-2.1018268E-1,-3.8658224E-2,-2.0748408E-1,3.595397E-2,2.1687423E-1],"split_indices":[0,1,1,0,0,0,1,0,1,2,0,0,0,0,0,0,0,0,0,1,1,0,1,0,0,0,1,0,0,2,1,0,0,0,0,0,0,0,0,0,0,0,0],"split_type":[0,0,0,0,0,0,0,0,0,0,0,0,0,0,0,0,0,0,0,0,0,0,0,0,0,0,0,0,0,0,0,0,0,0,0,0,0,0,0,0,0,0,0],"sum_hessian":[1.119104E2,2.8442726E1,8.3467674E1,1.0235019E1,1.8207706E1,5.265956E0,7.820172E1,5.3867097E0,4.8483095E0,4.1832E0,1.082756E0,6.7893745E1,1.0307979E1,4.071942E0,1.3147677E0,1.659716E0,3.1885931E0,2.7587678E0,1.4244322E0,4.1497856E1,2.6395884E1,2.8227453E0,7.4852333E0,1.4788829E0,1.279885E0,3.762693E1,3.8709288E0,1.4167454E1,1.2228431E1,5.0701694E0,2.415064E0,2.5876394E1,1.1750534E1,1.4292638E0,2.441665E0,1.3143372E1,1.0240824E0,4.664575E0,7.563855E0,3.1995518E0,1.8706174E0,1.1807153E0,1.2343488E0],"tree_param":{"num_deleted":"0","num_feature":"3","num_nodes":"43","size_leaf_vector":"1"}},{"base_weights":[4.503292E-2,8.0941516E-1,-1.2184404E-1,4.0521067E-1,2.782198E-1,2.1175486E-1,-2.0812657E-1,2.5399157E-1,-1.362473E-1,-3.7690854E-1,7.8129256E-1,-2.6843226E-1,4.3919787E-1,5.7965584E-2,-1.3595042E-1,6.914255E-2,-5.455897E-1,3.8318762E-1,3.0038035E-1,-3.9830536E-1,1.23341046E-1,7.5738585E-1,-1.3914022E-1,2.11712E-2,-7.0217067E-1,-2.1355063E-1,3.0862814E-1,-1.97493E-1,-7.150417E-1,2.7470917E-1,-9.579755E-2,3.527679E-1,2.7822268E-1,-2.4769022E-1,-2.3321055E-2,-1.3602003E-1,1.3127246E-1,4.796251E-2,-2.458761E-1,-2.4019818E-1,6.2235706E-2,-1.0613283E-2,1.7091283E-1],"categories":[],"categories_nodes":[],"categories_segments":[],"categories_sizes":[],"default_left":[0,0,0,0,0,0,0,0,0,0,0,0,0,0,0,0,0,0,0,0,0,0,0,0,0,0,0,0,0,0,0,0,0,0,0,0,0,0,0,0,0,0,0],"id":16,"left_children":[1,3,5,7,-1,9,11,-1,13,15,17,19,21,-1,-1,-1,23,-1,25,27,29,31,-1,-1,33,-1,-1,35,37,-1,39,41,-1,-1,-1,-1,-1,-1,-1,-1,-1,-1,-1],"loss_changes":[1.2780071E1,4.8004436E-1,2.4179077E0,1.5089784E0,0E0,6.1425E0,2.69547E0,0E0,4.5092702E-1,1.0736533E0,1.8086553E0,3.1539774E0,2.0770602E0,0E0,0E0,0E0,7.7681446E-1,0E0,5.1367373E0,2.7887902E0,2.8582659E0,4.511595E-3,0E0,0E0,4.0624356E-1,0E0,0E0,5.004658E0,1.7310247E0,0E0,3.0313065E0,2.7616945E-1,0E0,0E0,0E0,0E0,0E0,0E0,0E0,0E0,0E0,0E0,0E0],"parents":[2147483647,0,0,1,1,2,2,3,3,5,5,6,6,8,8,9,9,10,10,11,11,12,12,16,16,18,18,19,19,20,20,21,21,24,24,27,27,28,28,30,30,31,31],"right_children":[2,4,6,8,-1,10,12,-1,14,16,18,20,22,-1,-1,-1,24,-1,26,28,30,32,-1,-1,34,-1,-1,36,38,-1,40,42,-1,-1,-1,-1,-1,-1,-1,-1,-1,-1,-1],"split_conditions":[1.6749239E0,3.8667706E-1,2.199E1,8.981083E-3,2.782198E-1,5.016E0,1.15E2,2.5399157E-1,3.6308825E-1,1.5001309E0,1.799E1,2.5E1,1.29E2,5.7965584E-2,-1.3595042E-1,6.914255E-2,9.9E0,3.8318762E-1,6.768792E0,4.9E1,8.9E1,1.23E2,-1.3914022E-1,2.11712E-2,1.999E1,-2.1355063E-1,3.0862814E-1,1.057E1,2.85E0,2.7470917E-1,3.56859E1,1.014E1,2.7822268E-1,-2.4769022E-1,-2.3321055E-2,-1.3602003E-1,1.3127246E-1,4.796251E-2,-2.458761E-1,-2.4019818E-1,6.2235706E-2,-1.0613283E-2,1.7091283E-1],"split_indices":[0,1,0,1,0,1,2,0,0,1,0,1,2,0,0,0,0,0,1,0,0,2,0,0,0,0,0,1,1,0,1,1,0,0,0,0,0,0,0,0,0,0,0],"split_type":[0,0,0,0,0,0,0,0,0,0,0,0,0,0,0,0,0,0,0,0,0,0,0,0,0,0,0,0,0,0,0,0,0,0,0,0,0,0,0,0,0,0,0],"sum_hessian":[9.841729E1,1.6945917E1,8.1471375E1,4.8307147E0,1.2115202E1,1.6442936E1,6.502844E1,2.3506784E0,2.4800365E0,8.252023E0,8.190914E0,6.0022022E1,5.006419E0,1.4073266E0,1.07271E0,1.7139891E0,6.5380335E0,3.2170062E0,4.973908E0,4.5065956E1,1.4956065E1,3.8212032E0,1.1852157E0,1.4361106E0,5.101923E0,2.0909162E0,2.8829916E0,2.8573648E1,1.6492306E1,2.551563E0,1.2404503E1,2.0403762E0,1.7808269E0,3.9906733E0,1.1112496E0,2.0570581E1,8.003067E0,1.7038574E0,1.4788449E1,3.237984E0,9.166518E0,1.0315975E0,1.0087788E0],"tree_param":{"num_deleted":"0","num_feature":"3","num_nodes":"43","size_leaf_vector":"1"}},{"base_weights":[4.570854E-2,7.7213025E-1,-9.5421E-2,3.6324382E-1,2.713689E-1,-5.6852555E-1,-4.1450035E-2,2.3851742E-1,-1.2606199E-1,-1.4032567E-1,-2.4188517E-1,4.305755E-1,-8.6820185E-2,6.1972313E-2,-1.16160944E-1,-1.7097996E-1,1.4627206E-1,-1.16299376E-1,2.3682955E-1,1.8877578E-1,-1.44902E-1,1.2478628E-2,-8.203553E-2],"categories":[],"categories_nodes":[],"categories_segments":[],"categories_sizes":[],"default_left":[0,0,0,0,0,0,0,0,0,0,0,0,0,0,0,0,0,0,0,0,0,0,0],"id":17,"left_children":[1,3,5,7,-1,9,11,-1,13,15,-1,-1,17,-1,-1,-1,-1,19,-1,-1,21,-1,-1],"loss_changes":[9.066209E0,4.500513E-1,1.874527E0,1.1965767E0,0E0,6.5379405E-1,4.6672845E0,0E0,3.6626232E-1,1.3299578E0,0E0,0E0,1.8153934E0,0E0,0E0,0E0,0E0,1.4863455E0,0E0,0E0,1.541415E0,0E0,0E0],"parents":[2147483647,0,0,1,1,2,2,3,3,5,5,6,6,8,8,9,9,12,12,17,17,20,20],"right_children":[2,4,6,8,-1,10,12,-1,14,16,-1,-1,18,-1,-1,-1,-1,20,-1,-1,22,-1,-1],"split_conditions":[1.6749239E0,3.8667706E-1,4E0,8.981083E-3,2.713689E-1,4.5E1,7E0,2.3851742E-1,2.9E1,3E0,-2.4188517E-1,4.305755E-1,8.163426E1,6.1972313E-2,-1.16160944E-1,-1.7097996E-1,1.4627206E-1,1.2340465E-1,2.3682955E-1,1.8877578E-1,3.2E1,1.2478628E-2,-8.203553E-2],"split_indices":[0,1,2,1,0,0,2,0,2,2,0,0,1,0,0,0,0,1,0,0,0,0,0],"split_type":[0,0,0,0,0,0,0,0,0,0,0,0,0,0,0,0,0,0,0,0,0,0,0],"sum_hessian":[8.671527E1,1.3379135E1,7.3336136E1,4.188861E0,9.190274E0,6.5331573E0,6.680298E1,1.8932189E0,2.2956421E0,2.9001768E0,3.6329806E0,1.0781224E0,6.572485E1,1.1015126E0,1.1941295E0,1.7768065E0,1.1233703E0,6.4424736E1,1.3001242E0,1.6044166E0,6.2820316E1,2.5908787E1,3.691153E1],"tree_param":{"num_deleted":"0","num_feature":"3","num_nodes":"23","size_leaf_vector":"1"}},{"base_weights":[4.831944E-2,7.2319627E-1,-6.39798E-2,3.1920877E-1,2.6317436E-1,-5.0233305E-1,-1.8417846E-2,2.2201495E-1,-1.0430279E-1,3.3829402E-2,-6.343805E-1,3.5167044E-1,-5.7365656E-2,5.1768966E-2,-9.852968E-2,-6.296991E-2,-2.381395E-1,-1.635198E-1,2.2464027E-1,-3.3244282E-2,-6.7320544E-1,3.110835E-1,5.2732874E-2,-3.0977197E-2,1.9478923E-1,5.295522E-2,-2.6468974E-1,-2.1482539E-1,7.237198E-2],"categories":[],"categories_nodes":[],"categories_segments":[],"categories_sizes":[],"default_left":[0,0,0,0,0,0,0,0,0,0,0,0,0,0,0,0,0,0,0,0,0,0,0,0,0,0,0,0,0],"id":18,"left_children":[1,3,5,7,-1,9,11,-1,13,-1,15,-1,17,-1,-1,-1,-1,19,21,23,25,-1,27,-1,-1,-1,-1,-1,-1],"loss_changes":[6.3053823E0,4.5828104E-1,1.4232314E0,9.41068E-1,0E0,6.169362E-1,3.1282938E0,0E0,2.6097426E-1,0E0,2.176845E-1,0E0,1.9787276E0,0E0,0E0,0E0,0E0,3.1454778E0,2.481524E0,1.93307E0,1.8720632E0,0E0,2.497902E0,0E0,0E0,0E0,0E0,0E0,0E0],"parents":[2147483647,0,0,1,1,2,2,3,3,5,5,6,6,8,8,10,10,12,12,17,17,18,18,19,19,20,20,22,22],"right_children":[2,4,6,8,-1,10,12,-1,14,-1,16,-1,18,-1,-1,-1,-1,20,22,24,26,-1,28,-1,-1,-1,-1,-1,-1],"split_conditions":[1.6749239E0,3.8667706E-1,4E0,8.981083E-3,2.6317436E-1,6.095122E0,7E0,2.2201495E-1,3E1,3.3829402E-2,4.5E1,3.5167044E-1,1.7424408E1,5.1768966E-2,-9.852968E-2,-6.296991E-2,-2.381395E-1,4.49E1,6E1,1.2314195E1,2.85E0,3.110835E-1,2.5E1,-3.0977197E-2,1.9478923E-1,5.295522E-2,-2.6468974E-1,-2.1482539E-1,7.237198E-2],"split_indices":[0,1,2,1,0,1,2,0,2,0,0,0,1,0,0,0,0,0,0,1,1,0,1,0,0,0,0,0,0],"split_type":[0,0,0,0,0,0,0,0,0,0,0,0,0,0,0,0,0,0,0,0,0,0,0,0,0,0,0,0,0],"sum_hessian":[8.158696E1,1.0863207E1,7.0723755E1,3.8469605E0,7.0162463E0,5.7149286E0,6.500883E1,1.5546752E0,2.2922852E0,1.0358424E0,4.679086E0,1.137495E0,6.387133E1,1.1284232E0,1.1638621E0,1.9100009E0,2.7690854E0,4.6709026E1,1.7162302E1,3.804895E1,8.660077E0,2.1187394E0,1.5043563E1,3.527887E1,2.770082E0,1.7409471E0,6.91913E0,2.4111364E0,1.2632426E1],"tree_param":{"num_deleted":"0","num_feature":"3","num_nodes":"29","size_leaf_vector":"1"}},{"base_weights":[4.344575E-2,7.6291317E-1,-3.987948E-2,5.8262438E-2,2.5774574E-1,2.2281377E-1,-7.026736E-2,7.984315E-2,-1.8165165E-1,-2.4125174E-1,6.026419E-1,-4.461647E-1,9.877787E-2,1.1377849E-1,-3.066418E-1,3.1430477E-1,1.9897513E-1,2.1027187E-1,-6.922617E-1,2.6774687E-1,-5.4627113E-2,-1.2175659E-1,1.1310475E-1,-8.973884E-2,1.9407827E-1,1.3757488E-1,-1.1731972E-1,-2.749606E-1,-6.687364E-2,-2.151336E-1,2.8260542E-2],"categories":[],"categories_nodes":[],"categories_segments":[],"categories_sizes":[],"default_left":[0,0,0,0,0,0,0,0,0,0,0,0,0,0,0,0,0,0,0,0,0,0,0,0,0,0,0,0,0,0,0],"id":19,"left_children":[1,3,5,-1,-1,-1,7,9,11,13,15,17,19,-1,21,-1,23,25,27,-1,29,-1,-1,-1,-1,-1,-1,-1,-1,-1,-1],"loss_changes":[4.6783614E0,2.763028E-1,1.7271917E0,0E0,0E0,0E0,1.1634064E0,5.1753435E0,2.9926715E0,8.9846504E-1,1.891058E0,3.4794316E0,2.4977708E0,0E0,1.3733827E0,0E0,1.8363409E0,1.1341133E0,1.4002042E0,0E0,1.8223909E0,0E0,0E0,0E0,0E0,0E0,0E0,0E0,0E0,0E0,0E0],"parents":[2147483647,0,0,1,1,2,2,6,6,7,7,8,8,9,9,10,10,11,11,12,12,14,14,16,16,17,17,18,18,20,20],"right_children":[2,4,6,-1,-1,-1,8,10,12,14,16,18,20,-1,22,-1,24,26,28,-1,30,-1,-1,-1,-1,-1,-1,-1,-1,-1,-1],"split_conditions":[1E0,1.2340465E-1,1.2340465E-1,5.8262438E-2,2.5774574E-1,2.2281377E-1,3.2E1,6.768792E0,1.601E1,7E0,2.4E1,5.881555E0,5.599E1,1.1377849E-1,2.999E1,3.1430477E-1,9.265854E0,4.49E1,1.25E1,2.6774687E-1,2.25E1,-1.2175659E-1,1.1310475E-1,-8.973884E-2,1.9407827E-1,1.3757488E-1,-1.1731972E-1,-2.749606E-1,-6.687364E-2,-2.151336E-1,2.8260542E-2],"split_indices":[0,1,1,0,0,0,0,1,1,2,0,1,0,0,0,0,1,0,1,0,1,0,0,0,0,0,0,0,0,0,0],"split_type":[0,0,0,0,0,0,0,0,0,0,0,0,0,0,0,0,0,0,0,0,0,0,0,0,0,0,0,0,0,0,0],"sum_hessian":[7.6530495E1,7.0968924E0,6.94336E1,1.4639525E0,5.63294E0,1.7191262E0,6.771448E1,2.896375E1,3.8750725E1,1.82769E1,1.06868515E1,1.9637136E1,1.9113586E1,1.2848102E0,1.699209E1,4.3241177E0,6.3627334E0,5.394221E0,1.4242916E1,2.3154855E0,1.6798101E1,1.5193527E1,1.7985628E0,3.1700253E0,3.192708E0,3.985768E0,1.4084529E0,8.992952E0,5.2499633E0,2.381027E0,1.4417073E1],"tree_param":{"num_deleted":"0","num_feature":"3","num_nodes":"31","size_leaf_vector":"1"}},{"base_weights":[4.3050297E-2,5.176135E-1,-6.626962E-2,9.08582E-3,2.8439137E-1,3.9455247E-1,-1.1677447E-1,1.8949477E-1,-2.9773453E-1,5.493224E-1,-1.3676408E-2,-3.6727083E-1,-1.897395E-2,2.9553816E-2,-4.8940444E-1,1.2752655E-1,2.7251548E-1,1.9467555E-1,-5.4220915E-1,8.3278793E-1,-1.4185649E-1,-2.313516E-1,4.192912E-2,1.6966291E-1,-1.0936106E-1,-2.6736102E-1,-5.3025022E-2,2.8335643E-1,6.682937E-2,-6.045082E-1,2.0270564E-3,2.3291716E-1,-1.254327E-1,7.5798924E-3,-2.3525499E-1,2.197045E-1,-3.1080317E-2],"categories":[],"categories_nodes":[],"categories_segments":[],"categories_sizes":[],"default_left":[0,0,0,0,0,0,0,0,0,0,0,0,0,0,0,0,0,0,0,0,0,0,0,0,0,0,0,0,0,0,0,0,0,0,0,0,0],"id":20,"left_children":[1,3,5,7,-1,9,11,-1,13,15,-1,17,19,-1,21,23,-1,-1,25,27,29,-1,-1,-1,-1,-1,31,-1,-1,33,35,-1,-1,-1,-1,-1,-1],"loss_changes":[3.733109E0,2.9375923E0,1.4153671E0,1.5596279E0,0E0,4.364602E-1,1.3109298E0,0E0,4.651368E-1,5.7249546E-1,0E0,3.0274508E0,4.2779875E0,0E0,7.9339796E-1,9.0733504E-1,0E0,0E0,2.2378945E0,1.4105606E-1,2.3702054E0,0E0,0E0,0E0,0E0,0E0,2.334184E0,0E0,0E0,9.754567E-1,2.2468095E0,0E0,0E0,0E0,0E0,0E0,0E0],"parents":[2147483647,0,0,1,1,2,2,3,3,5,5,6,6,8,8,9,9,11,11,12,12,14,14,15,15,18,18,19,19,20,20,26,26,29,29,30,30],"right_children":[2,4,6,8,-1,10,12,-1,14,16,-1,18,20,-1,22,24,-1,-1,26,28,30,-1,-1,-1,-1,-1,32,-1,-1,34,36,-1,-1,-1,-1,-1,-1],"split_conditions":[1.299E1,3.705E0,2.85E0,7.7411555E-2,2.8439137E-1,5.2E1,6.768792E0,1.8949477E-1,4E1,1.9E1,-1.3676408E-2,7E0,2.599E1,2.9553816E-2,1.31E2,2.599E1,2.7251548E-1,1.9467555E-1,2.999E1,2.4E1,1.057E1,-2.313516E-1,4.192912E-2,1.6966291E-1,-1.0936106E-1,-2.6736102E-1,4.275E0,2.8335643E-1,6.682937E-2,1.3E1,3.699E1,2.3291716E-1,-1.254327E-1,7.5798924E-3,-2.3525499E-1,2.197045E-1,-3.1080317E-2],"split_indices":[0,1,1,0,0,2,1,0,2,2,0,2,0,0,2,0,0,0,0,0,1,0,0,0,0,0,1,0,0,2,0,0,0,0,0,0,0],"split_type":[0,0,0,0,0,0,0,0,0,0,0,0,0,0,0,0,0,0,0,0,0,0,0,0,0,0,0,0,0,0,0,0,0,0,0,0,0],"sum_hessian":[7.0296524E1,1.2462283E1,5.783424E1,6.180396E0,6.2818866E0,5.039558E0,5.279468E1,1.6908436E0,4.4895525E0,3.5449567E0,1.4946012E0,1.4050878E1,3.87438E1,1.622115E0,2.8674374E0,2.2532258E0,1.291731E0,1.6656963E0,1.2385181E1,4.1564198E0,3.4587383E1,1.8246034E0,1.0428339E0,1.1130768E0,1.140149E0,6.748701E0,5.636481E0,3.0495245E0,1.1068954E0,7.4454536E0,2.714193E1,1.3783867E0,4.258094E0,1.843439E0,5.602015E0,2.679864E0,2.4462065E1],"tree_param":{"num_deleted":"0","num_feature":"3","num_nodes":"37","size_leaf_vector":"1"}},{"base_weights":[4.5501295E-2,2.3187084E-1,-5.945265E-3,-5.4871388E-2,4.2805842E-1,4.3254964E-2,-2.7418044E-1,6.5418494E-1,-1.11448586E-1,4.379707E-1,-7.428994E-2,4.3211423E-2,2.3821676E-1,3.7491404E-2,7.315796E-1,-4.4609046E-1,2.768792E-2,8.555384E-2,-6.968586E-2,2.8140786E-1,8.476099E-2,-2.1981295E-2,-1.7928562E-1,2.257887E-1,-1.2891226E-2],"categories":[],"categories_nodes":[],"categories_segments":[],"categories_sizes":[],"default_left":[0,0,0,0,0,0,0,0,0,0,0,0,0,0,0,0,0,0,0,0,0,0,0,0,0],"id":21,"left_children":[1,-1,3,5,7,9,-1,11,-1,13,15,-1,-1,17,19,21,23,-1,-1,-1,-1,-1,-1,-1,-1],"loss_changes":[2.4749665E0,0E0,1.3537042E0,4.860038E0,1.4110461E0,2.458044E0,0E0,2.7081275E-1,0E0,1.4001353E0,1.5720657E0,0E0,0E0,4.7984505E-1,3.7935805E-1,4.5972288E-1,1.7341771E0,0E0,0E0,0E0,0E0,0E0,0E0,0E0,0E0],"parents":[2147483647,0,0,2,2,3,3,4,4,5,5,7,7,9,9,10,10,13,13,14,14,15,15,16,16],"right_children":[2,-1,4,6,8,10,-1,12,-1,14,16,-1,-1,18,20,22,24,-1,-1,-1,-1,-1,-1,-1,-1],"split_conditions":[7.7411555E-2,2.3187084E-1,1.15E2,6.7E1,1.34E2,2.199E1,-2.7418044E-1,3E1,-1.11448586E-1,5.016E0,1.2E1,4.3211423E-2,2.3821676E-1,2.3844104E0,1.799E1,5.881555E0,1.3E1,8.555384E-2,-6.968586E-2,2.8140786E-1,8.476099E-2,-2.1981295E-2,-1.7928562E-1,2.257887E-1,-1.2891226E-2],"split_indices":[0,0,2,2,2,0,0,0,0,1,2,0,0,1,0,1,2,0,0,0,0,0,0,0,0],"split_type":[0,0,0,0,0,0,0,0,0,0,0,0,0,0,0,0,0,0,0,0,0,0,0,0,0],"sum_hessian":[6.501334E1,3.3681238E0,6.164522E1,5.6184948E1,5.4602747E0,5.127744E1,4.9075074E0,4.398205E0,1.0620699E0,1.1140766E1,4.0136673E1,1.3831775E0,3.0150275E0,5.189727E0,5.951039E0,7.9128547E0,3.222382E1,2.6758687E0,2.5138583E0,3.330776E0,2.6202629E0,2.7154121E0,5.1974425E0,2.004679E0,3.021914E1],"tree_param":{"num_deleted":"0","num_feature":"3","num_nodes":"25","size_leaf_vector":"1"}},{"base_weights":[4.058669E-2,2.1874902E-1,-1.9523646E-3,2.0127639E-1,-2.9352902E-2,-1.1200141E-1,1.4891002E-1,1.566974E-2,-7.7486473E-1,6.3867897E-1,-4.5815498E-2,-4.5797512E-2,2.6713064E-1,-2.6396817E-1,-4.547047E-2,2.2591828E-1,2.886336E-1,-2.1063836E-1,1.9140443E-1,1.1831318E-2,-1.8275703E-1,2.1302986E-1,-1.5645958E-1,2.247149E-1,-4.21895E-2],"categories":[],"categories_nodes":[],"categories_segments":[],"categories_sizes":[],"default_left":[0,0,0,0,0,0,0,0,0,0,0,0,0,0,0,0,0,0,0,0,0,0,0,0,0],"id":22,"left_children":[1,-1,3,-1,5,7,9,11,13,15,17,19,-1,-1,-1,21,-1,-1,23,-1,-1,-1,-1,-1,-1],"loss_changes":[1.8494838E0,0E0,1.1336378E0,0E0,8.861211E-1,3.4726043E0,1.8529946E0,1.9370385E0,3.002422E-1,5.178218E-1,2.4099085E0,1.6520383E0,0E0,0E0,0E0,1.7188742E0,0E0,0E0,2.238587E0,0E0,0E0,0E0,0E0,0E0,0E0],"parents":[2147483647,0,0,2,2,4,4,5,5,6,6,7,7,8,8,9,9,10,10,11,11,15,15,18,18],"right_children":[2,-1,4,-1,6,8,10,12,14,16,18,20,-1,-1,-1,22,-1,-1,24,-1,-1,-1,-1,-1,-1],"split_conditions":[7.7411555E-2,2.1874902E-1,8.981083E-3,2.0127639E-1,1.601E1,4.49E1,7.499E1,4E1,7.999E1,2.003E1,3.002327E1,3.9E1,2.6713064E-1,-2.6396817E-1,-4.547047E-2,5.599E1,2.886336E-1,-2.1063836E-1,1.19E2,1.1831318E-2,-1.8275703E-1,2.1302986E-1,-1.5645958E-1,2.247149E-1,-4.21895E-2],"split_indices":[0,0,1,0,1,0,0,0,0,1,1,0,0,0,0,0,0,0,0,0,0,0,0,0,0],"split_type":[0,0,0,0,0,0,0,0,0,0,0,0,0,0,0,0,0,0,0,0,0,0,0,0,0],"sum_hessian":[6.2092247E1,2.6736138E0,5.9418633E1,1.4059945E0,5.8012638E1,3.9890026E1,1.8122612E1,3.4266476E1,5.623553E0,4.506949E0,1.3615663E1,3.290218E1,1.3642949E0,4.46029E0,1.1632627E0,2.726249E0,1.7806998E0,3.0944588E0,1.0521204E1,2.9386341E1,3.5158377E0,1.6848272E0,1.0414218E0,3.4578743E0,7.06333E0],"tree_param":{"num_deleted":"0","num_feature":"3","num_nodes":"25","size_leaf_vector":"1"}},{"base_weights":[3.7204124E-2,2.0506866E-1,1.1997024E-3,1.8531878E-1,-2.2777142E-2,-5.5741932E-2,4.4953865E-1,-1.4549032E-2,-2.1560375E-1,2.3506038E-1,6.0230815E-3,-7.438377E-2,5.748046E-1,-4.5671635E-3,-2.2943287E-1,7.3073454E-2,2.6355106E-1],"categories":[],"categories_nodes":[],"categories_segments":[],"categories_sizes":[],"default_left":[0,0,0,0,0,0,0,0,0,0,0,0,0,0,0,0,0],"id":23,"left_children":[1,-1,3,-1,5,7,9,11,-1,-1,-1,13,15,-1,-1,-1,-1],"loss_changes":[1.3891997E0,0E0,8.6524373E-1,0E0,9.0302384E-1,1.4532658E0,5.27782E-1,1.8583087E0,0E0,0E0,0E0,1.9335301E0,2.7488434E-1,0E0,0E0,0E0,0E0],"parents":[2147483647,0,0,2,2,4,4,5,5,6,6,7,7,11,11,12,12],"right_children":[2,-1,4,-1,6,8,10,12,-1,-1,-1,14,16,-1,-1,-1,-1],"split_conditions":[7.7411555E-2,2.0506866E-1,8.981083E-3,1.8531878E-1,2.19E2,1.6999E2,5.074938E1,3.4913002E1,-2.1560375E-1,2.3506038E-1,6.0230815E-3,8.9E1,4.4E1,-4.5671635E-3,-2.2943287E-1,7.3073454E-2,2.6355106E-1],"split_indices":[0,0,1,0,0,0,1,1,0,0,0,0,1,0,0,0,0],"split_type":[0,0,0,0,0,0,0,0,0,0,0,0,0,0,0,0,0],"sum_hessian":[5.872993E1,2.1498537E0,5.658008E1,1.1910253E0,5.538905E1,5.259988E1,2.7891726E0,5.0484848E1,2.1150286E0,1.1051954E0,1.6839771E0,4.662499E1,3.8598628E0,4.3886402E1,2.7385857E0,2.708213E0,1.1516496E0],"tree_param":{"num_deleted":"0","num_feature":"3","num_nodes":"17","size_leaf_vector":"1"}},{"base_weights":[3.459173E-2,1.9123624E-1,4.6448186E-3,-3.425435E-2,3.24838E-1,4.8121937E-2,-2.548718E-1,5.1003367E-1,-9.289144E-2,3.4552765E-1,-4.4647302E-2,2.61843E-2,6.3253516E-1,-5.2342135E-2,6.0078406E-1,-2.611632E-1,1.3189887E-1,2.4132092E-1,7.166952E-2,5.495633E-2,-1.0544699E-1,2.5331047E-1,4.9117267E-2,6.4889036E-2,-1.3959037E-1,1.8829219E-1,7.8070895E-3],"categories":[],"categories_nodes":[],"categories_segments":[],"categories_sizes":[],"default_left":[0,0,0,0,0,0,0,0,0,0,0,0,0,0,0,0,0,0,0,0,0,0,0,0,0,0,0],"id":24,"left_children":[1,-1,3,5,7,9,-1,11,-1,13,15,-1,17,19,21,23,25,-1,-1,-1,-1,-1,-1,-1,-1,-1,-1],"loss_changes":[1.0498266E0,0E0,7.1561354E-1,3.488953E0,8.890815E-1,1.3280051E0,0E0,2.137953E-1,0E0,1.1918405E0,1.454447E0,0E0,6.946337E-2,4.438297E-1,6.1129355E-1,1.7596408E0,1.0925761E0,0E0,0E0,0E0,0E0,0E0,0E0,0E0,0E0,0E0,0E0],"parents":[2147483647,0,0,2,2,3,3,4,4,5,5,7,7,9,9,10,10,12,12,13,13,14,14,15,15,16,16],"right_children":[2,-1,4,6,8,10,-1,12,-1,14,16,-1,18,20,22,24,26,-1,-1,-1,-1,-1,-1,-1,-1,-1,-1],"split_conditions":[7.7411555E-2,1.9123624E-1,1.15E2,6.7E1,1.33E2,2.199E1,-2.548718E-1,3E1,-9.289144E-2,4.82E0,1.1090047E1,2.61843E-2,5.7E0,2.3844104E0,1.799E1,4.275E0,3.999E1,2.4132092E-1,7.166952E-2,5.495633E-2,-1.0544699E-1,2.5331047E-1,4.9117267E-2,6.4889036E-2,-1.3959037E-1,1.8829219E-1,7.8070895E-3],"split_indices":[0,0,2,2,2,0,0,0,0,1,1,0,1,1,0,1,0,0,0,0,0,0,0,0,0,0,0],"split_type":[0,0,0,0,0,0,0,0,0,0,0,0,0,0,0,0,0,0,0,0,0,0,0,0,0,0,0],"sum_hessian":[5.731369E1,1.7522829E0,5.556141E1,5.0338924E1,5.2224827E0,4.6574238E1,3.7646856E0,4.194341E0,1.0281417E0,1.0425831E1,3.6148407E1,1.3270792E0,2.867262E0,4.385331E0,6.0405E0,1.6020996E1,2.012741E1,1.2694739E0,1.597788E0,2.6704352E0,1.7148958E0,3.2803524E0,2.7601478E0,4.7804356E0,1.1240561E1,2.67484E0,1.7452572E1],"tree_param":{"num_deleted":"0","num_feature":"3","num_nodes":"27","size_leaf_vector":"1"}},{"base_weights":[3.4284648E-2,1.8463343E-1,9.010971E-3,-2.2387138E-1,6.306472E-2,-3.3912387E-1,6.828021E-2,7.088505E-1,-1.8175453E-2,-4.9647443E-2,-2.2437255E-1,2.3670949E-1,7.098452E-2,1.6753599E-1,-5.4991424E-2,-3.418796E-1,2.0421873E-1,-4.5082438E-1,5.123498E-2,2.5153238E-2,-2.2516571E-1,-2.4403763E-1,1.40958335E-2,1.5920962E-1,-2.8490266E-2],"categories":[],"categories_nodes":[],"categories_segments":[],"categories_sizes":[],"default_left":[0,0,0,0,0,0,0,0,0,0,0,0,0,0,0,0,0,0,0,0,0,0,0,0,0],"id":25,"left_children":[1,-1,3,5,7,9,-1,11,13,15,-1,-1,-1,-1,17,19,-1,21,23,-1,-1,-1,-1,-1,-1],"loss_changes":[8.0770504E-1,0E0,6.9483E-1,6.18678E-1,2.356379E0,9.9141306E-1,0E0,3.247261E-3,8.937262E-1,1.5474358E0,0E0,0E0,0E0,0E0,1.6681389E0,9.4415766E-1,0E0,1.5509602E0,2.2755637E0,0E0,0E0,0E0,0E0,0E0,0E0],"parents":[2147483647,0,0,2,2,3,3,4,4,5,5,7,7,8,8,9,9,14,14,15,15,17,17,18,18],"right_children":[2,-1,4,6,8,10,-1,12,14,16,-1,-1,-1,-1,18,20,-1,22,24,-1,-1,-1,-1,-1,-1],"split_conditions":[8.981083E-3,1.8463343E-1,3.9766123E0,1.1E2,1.799E1,5.7E1,6.828021E-2,1.299E1,4.275E0,3.5E1,-2.2437255E-1,2.3670949E-1,7.098452E-2,1.6753599E-1,7E0,2.199E1,2.0421873E-1,3E1,3.299E1,2.5153238E-2,-2.2516571E-1,-2.4403763E-1,1.40958335E-2,1.5920962E-1,-2.8490266E-2],"split_indices":[1,0,1,2,0,2,0,0,1,2,0,0,0,0,1,0,0,0,0,0,0,0,0,0,0],"split_type":[0,0,0,0,0,0,0,0,0,0,0,0,0,0,0,0,0,0,0,0,0,0,0,0,0],"sum_hessian":[5.4368183E1,1.2926601E0,5.307552E1,9.40667E0,4.366885E1,7.691915E0,1.7147552E0,4.016438E0,3.9652412E1,5.15963E0,2.5322852E0,2.8599944E0,1.1564437E0,1.5294042E0,3.812301E1,4.0650635E0,1.0945662E0,7.3797493E0,3.074326E1,2.3802943E0,1.6847692E0,3.9027119E0,3.4770372E0,6.569391E0,2.417387E1],"tree_param":{"num_deleted":"0","num_feature":"3","num_nodes":"25","size_leaf_vector":"1"}},{"base_weights":[3.0271139E-2,-5.1969793E-2,1.8675601E-1,6.6005915E-2,-4.3998867E-1,6.906465E-1,2.1989241E-2,3.967293E-3,2.126521E-1,2.4544573E-1,-2.5349456E-1,2.4911116E-1,8.357712E-2,-1.9850646E-1,1.7081845E-1,9.205092E-2,-3.740741E-1,1.7418227E-1,-3.9783128E-2,2.4472666E-1,2.0001233E-2,-7.4622184E-2,4.042181E-1,7.539956E-2,-2.2562744E-1,-1.8573245E-1,1.7377293E-1,-4.6593763E-2,5.9298333E-2,2.3460446E-1,3.2346517E-2,1.2159192E-1,-8.878094E-2],"categories":[],"categories_nodes":[],"categories_segments":[],"categories_sizes":[],"default_left":[0,0,0,0,0,0,0,0,0,0,0,0,0,0,0,0,0,0,0,0,0,0,0,0,0,0,0,0,0,0,0,0,0],"id":26,"left_children":[1,3,5,7,9,11,13,15,-1,17,-1,-1,-1,-1,19,21,23,-1,-1,-1,25,27,29,-1,-1,-1,31,-1,-1,-1,-1,-1,-1],"loss_changes":[6.9603175E-1,1.6651059E0,1.5282203E0,1.1248735E0,2.5568202E0,3.050828E-2,1.6435583E0,9.266365E-1,0E0,5.734823E-1,0E0,0E0,0E0,0E0,1.2625223E0,1.2025439E0,1.4327155E0,0E0,0E0,0E0,1.2555499E0,3.7198755E-1,8.1138945E-1,0E0,0E0,0E0,1.2288337E0,0E0,0E0,0E0,0E0,0E0,0E0],"parents":[2147483647,0,0,1,1,2,2,3,3,4,4,5,5,6,6,7,7,9,9,14,14,15,15,16,16,20,20,21,21,22,22,26,26],"right_children":[2,4,6,8,10,12,14,16,-1,18,-1,-1,-1,-1,20,22,24,-1,-1,-1,26,28,30,-1,-1,-1,32,-1,-1,-1,-1,-1,-1],"split_conditions":[1.436983E1,3.9E1,5.599E1,1.1525E1,5.881555E0,4.9E1,2.25E1,3.2E1,2.126521E-1,4.49E1,-2.5349456E-1,2.4911116E-1,8.357712E-2,-1.9850646E-1,7.999E1,6.768792E0,4.82E0,1.7418227E-1,-3.9783128E-2,2.4472666E-1,3.002327E1,2.699E1,2.4E1,7.539956E-2,-2.2562744E-1,-1.8573245E-1,4.1E1,-4.6593763E-2,5.9298333E-2,2.3460446E-1,3.2346517E-2,1.2159192E-1,-8.878094E-2],"split_indices":[1,0,0,1,1,0,1,0,0,0,0,0,0,0,0,1,1,0,0,0,1,0,0,0,0,0,2,0,0,0,0,0,0],"split_type":[0,0,0,0,0,0,0,0,0,0,0,0,0,0,0,0,0,0,0,0,0,0,0,0,0,0,0,0,0,0,0,0,0],"sum_hessian":[5.2329823E1,3.4740025E1,1.7589796E1,2.7276573E1,7.463452E0,3.5479076E0,1.4041888E1,2.579347E1,1.4831032E0,2.9182997E0,4.545152E0,1.8913743E0,1.6565332E0,1.8942602E0,1.2147628E1,2.1532827E1,4.260642E0,1.2629095E0,1.6553901E0,1.4667006E0,1.0680927E1,1.4533838E1,6.9989896E0,1.7313548E0,2.529287E0,1.4845705E0,9.196357E0,1.1542766E1,2.9910727E0,2.3566792E0,4.64231E0,6.2517834E0,2.9445736E0],"tree_param":{"num_deleted":"0","num_feature":"3","num_nodes":"33","size_leaf_vector":"1"}},{"base_weights":[2.8067706E-2,1.7317861E-1,3.8015777E-3,-2.6690472E-2,1.4438783E-1,-5.287411E-2,1.4623435E-1,1.7705599E-2,-6.408142E-1,-7.8453444E-2,4.296659E-1,-2.3044258E-1,-5.2449707E-2,1.080187E-2,-2.5319555E-1,-1.5524389E-2,1.5879995E-1],"categories":[],"categories_nodes":[],"categories_segments":[],"categories_sizes":[],"default_left":[0,0,0,0,0,0,0,0,0,0,0,0,0,0,0,0,0],"id":27,"left_children":[1,-1,3,5,-1,7,-1,9,11,13,15,-1,-1,-1,-1,-1,-1],"loss_changes":[6.7234105E-1,0E0,7.3325527E-1,6.646419E-1,0E0,1.9226621E0,0E0,1.7012885E0,1.6020131E-1,3.0950005E0,4.1704035E-1,0E0,0E0,0E0,0E0,0E0,0E0],"parents":[2147483647,0,0,2,2,3,3,5,5,7,7,8,8,9,9,10,10],"right_children":[2,-1,4,6,-1,8,-1,10,12,14,16,-1,-1,-1,-1,-1,-1],"split_conditions":[8.981083E-3,1.7317861E-1,6.032041E1,2.19E2,1.4438783E-1,1.19E2,1.4623435E-1,1.7424408E1,3.6E1,4.5E1,2.2E1,-2.3044258E-1,-5.2449707E-2,1.080187E-2,-2.5319555E-1,-1.5524389E-2,1.5879995E-1],"split_indices":[1,0,1,0,0,0,0,1,2,0,2,0,0,0,0,0,0],"split_type":[0,0,0,0,0,0,0,0,0,0,0,0,0,0,0,0,0],"sum_hessian":[4.961489E1,1.1351529E0,4.8479736E1,4.6457138E1,2.0225983E0,4.505954E1,1.3975978E0,4.1096024E1,3.9635177E0,3.3975163E1,7.1208615E0,2.6036446E0,1.3598732E0,3.0385057E1,3.5901039E0,1.3038385E0,5.817023E0],"tree_param":{"num_deleted":"0","num_feature":"3","num_nodes":"17","size_leaf_vector":"1"}},{"base_weights":[1.9072885E-2,1.5352245E-1,-2.2317683E-3,7.224195E-2,-1.3408865E-1,-9.299338E-2,3.212733E-1,-2.9205447E-1,2.536881E-1,-3.2523777E-2,-1.7882463E-1,1.0507559E-1,4.0633208E-1,-8.637695E-2,-2.3121457E-1,4.5151788E-1,-4.4956964E-2,-1.0777558E-1,1.7903739E-1,-1.2458088E-1,5.448501E-1,2.4794029E-1,1.8284118E-1,2.58527E-1,-5.0388515E-1,3.1402573E-2,1.8239701E-1,2.6560893E-2,-1.3016357E-1,2.08242E-1,4.1545607E-2,1.3218525E-1,1.166767E-2,1.2662652E-1,-1.9744955E-2,-2.1797398E-1,5.0260525E-2],"categories":[],"categories_nodes":[],"categories_segments":[],"categories_sizes":[],"default_left":[0,0,0,0,0,0,0,0,0,0,0,0,0,0,0,0,0,0,0,0,0,0,0,0,0,0,0,0,0,0,0,0,0,0,0,0,0],"id":28,"left_children":[1,-1,3,5,7,9,11,13,15,17,-1,19,21,23,-1,25,-1,27,-1,-1,29,31,-1,33,35,-1,-1,-1,-1,-1,-1,-1,-1,-1,-1,-1,-1],"loss_changes":[5.180644E-1,0E0,4.8303485E-1,1.3241847E0,1.1612971E0,5.7942915E-1,1.921463E-1,1.2207748E0,5.205196E-1,9.465612E-1,0E0,1.3600159E0,1.32545E-1,1.6094905E0,0E0,1.5646487E-1,0E0,1.1578851E0,0E0,0E0,9.300715E-2,2.5028887E-1,0E0,3.6126408E-1,8.6726606E-1,0E0,0E0,0E0,0E0,0E0,0E0,0E0,0E0,0E0,0E0,0E0,0E0],"parents":[2147483647,0,0,2,2,3,3,4,4,5,5,6,6,7,7,8,8,9,9,11,11,12,12,13,13,15,15,17,17,20,20,21,21,23,23,24,24],"right_children":[2,-1,4,6,8,10,12,14,16,18,-1,20,22,24,-1,26,-1,28,-1,-1,30,32,-1,34,36,-1,-1,-1,-1,-1,-1,-1,-1,-1,-1,-1,-1],"split_conditions":[7.7411555E-2,1.5352245E-1,4.3E1,2.9E1,1.15E2,9.9E1,4E1,6.7E1,1.31E2,2.857E1,-1.7882463E-1,7.239E0,3.7E1,3.299E1,-2.3121457E-1,1.22E2,-4.4956964E-2,1.6E1,1.7903739E-1,-1.2458088E-1,2.999E1,3.5E1,1.8284118E-1,5.363415E0,2.19E2,3.1402573E-2,1.8239701E-1,2.6560893E-2,-1.3016357E-1,2.08242E-1,4.1545607E-2,1.3218525E-1,1.166767E-2,1.2662652E-1,-1.9744955E-2,-2.1797398E-1,5.0260525E-2],"split_indices":[0,0,2,2,2,0,0,2,2,1,0,1,2,0,0,2,0,2,0,0,0,2,0,1,0,0,0,0,0,0,0,0,0,0,0,0,0],"split_type":[0,0,0,0,0,0,0,0,0,0,0,0,0,0,0,0,0,0,0,0,0,0,0,0,0,0,0,0,0,0,0,0,0,0,0,0,0],"sum_hessian":[4.824883E1,1.0457504E0,4.720308E1,3.0454357E1,1.6748722E1,1.8683926E1,1.17704315E1,1.2076182E1,4.672539E0,1.7629559E1,1.0543666E0,3.9544804E0,7.8159513E0,9.272362E0,2.8038208E0,3.055675E0,1.616864E0,1.6486847E1,1.1427114E0,1.8368384E0,2.117642E0,5.6393604E0,2.1765912E0,5.2862067E0,3.9861548E0,1.4688133E0,1.5868617E0,1.0746204E1,5.740643E0,1.030784E0,1.086858E0,2.3581486E0,3.2812116E0,3.3137648E0,1.9724419E0,2.9316425E0,1.0545123E0],"tree_param":{"num_deleted":"0","num_feature":"3","num_nodes":"37","size_leaf_vector":"1"}},{"base_weights":[1.9358583E-2,-1.2062325E-1,4.2544123E-2,4.1061053E-1,6.735288E-3,2.7850097E-1,-1.5496497E-1,-2.880666E-2,1.6450486E-1,-3.758412E-1,1.893916E-2,2.9923119E-2,-1.6459513E-1,5.0410557E-1,-2.5323167E-2,1.6232833E-3,2.2560985E-1,-1.1682815E-1,7.2772256E-3],"categories":[],"categories_nodes":[],"categories_segments":[],"categories_sizes":[],"default_left":[0,0,0,0,0,0,0,0,0,0,0,0,0,0,0,0,0,0,0],"id":29,"left_children":[1,-1,3,5,7,-1,-1,9,-1,11,13,-1,-1,15,17,-1,-1,-1,-1],"loss_changes":[4.8220295E-1,0E0,6.0379046E-1,2.430157E0,8.427226E-1,0E0,0E0,6.908051E-1,0E0,4.6879947E-1,8.1212735E-1,0E0,0E0,3.8661712E-1,6.424342E-1,0E0,0E0,0E0,0E0],"parents":[2147483647,0,0,2,2,3,3,4,4,7,7,9,9,10,10,13,13,14,14],"right_children":[2,-1,4,6,8,-1,-1,10,-1,12,14,-1,-1,16,18,-1,-1,-1,-1],"split_conditions":[2E0,-1.2062325E-1,7E0,4.5E1,6.032041E1,2.7850097E-1,-1.5496497E-1,1.2E1,1.6450486E-1,2.3844104E0,1.3E1,2.9923119E-2,-1.6459513E-1,7E0,1.9E1,1.6232833E-3,2.2560985E-1,-1.1682815E-1,7.2772256E-3],"split_indices":[2,0,2,0,1,0,0,2,0,1,2,0,0,1,2,0,0,0,0],"split_type":[0,0,0,0,0,0,0,0,0,0,0,0,0,0,0,0,0,0,0],"sum_hessian":[4.6598637E1,1.5777972E0,4.502084E1,3.0636742E0,4.1957165E1,1.9650966E0,1.0985777E0,4.02619E1,1.6952637E0,4.0383015E0,3.6223602E1,1.1889697E0,2.8493319E0,2.1598706E0,3.4063732E1,1.0565307E0,1.1033399E0,3.2610672E0,3.0802664E1],"tree_param":{"num_deleted":"0","num_feature":"3","num_nodes":"19","size_leaf_vector":"1"}},{"base_weights":[1.5564657E-2,8.18316E-2,-1.04178466E-1,-7.191207E-2,2.3333322E-1,-2.480018E-1,2.293085E-1,4.592132E-2,-1.381057E-1,1.3105553E-1,4.171099E-1,4.601376E-3,-5.6894493E-1,-4.9111653E-2,4.1458103E-1,-5.9046995E-2,1.963674E-1,2.3621449E-1,-8.468206E-2,2.0033877E-1,-1.4612776E-3,2.0224257E-1,-1.5497944E-1,-2.1493663E-1,2.8859826E-3,7.828991E-2,-9.845234E-2,1.6255203E-1,4.1288916E-2,5.548164E-2,-1.4602822E-1,9.956656E-2,2.0566715E-1,1.6316323E-1,2.3875339E-2,-2.8891752E-2,1.00408636E-1,6.739922E-2,-1.24748655E-1,1.395869E-1,-9.826065E-2],"categories":[],"categories_nodes":[],"categories_segments":[],"categories_sizes":[],"default_left":[0,0,0,0,0,0,0,0,0,0,0,0,0,0,0,0,0,0,0,0,0,0,0,0,0,0,0,0,0,0,0,0,0,0,0,0,0,0,0,0,0],"id":30,"left_children":[1,3,5,7,9,11,13,15,-1,17,19,21,23,25,27,29,-1,31,-1,-1,-1,33,-1,-1,-1,-1,-1,-1,-1,35,-1,37,-1,-1,39,-1,-1,-1,-1,-1,-1],"loss_changes":[3.8240394E-1,7.3632467E-1,8.830737E-1,7.5791377E-1,2.4222136E-1,1.0172842E0,3.1490657E-1,8.857782E-1,0E0,5.711206E-1,5.521986E-1,9.280975E-1,4.78014E-1,3.6043054E-1,4.9997747E-2,6.259267E-1,0E0,5.33248E-1,0E0,0E0,0E0,3.8406637E-1,0E0,0E0,0E0,0E0,0E0,0E0,0E0,4.7900587E-1,0E0,6.531753E-1,0E0,0E0,9.7866964E-1,0E0,0E0,0E0,0E0,0E0,0E0],"parents":[2147483647,0,0,1,1,2,2,3,3,4,4,5,5,6,6,7,7,9,9,10,10,11,11,12,12,13,13,14,14,15,15,17,17,21,21,29,29,31,31,34,34],"right_children":[2,4,6,8,10,12,14,16,-1,18,20,22,24,26,28,30,-1,32,-1,-1,-1,34,-1,-1,-1,-1,-1,-1,-1,36,-1,38,-1,-1,40,-1,-1,-1,-1,-1,-1],"split_conditions":[4.3E1,2.2E1,1.15E2,4.699E1,3.635E1,3.299E1,3E1,1.3851E1,-1.381057E-1,8.9E1,1.6999E2,6.7E1,5.620349E1,7.99E0,5.7E0,1.6E1,1.963674E-1,2.5E1,-8.468206E-2,2.0033877E-1,-1.4612776E-3,5.8E1,-1.5497944E-1,-2.1493663E-1,2.8859826E-3,7.828991E-2,-9.845234E-2,1.6255203E-1,4.1288916E-2,1.2E1,-1.4602822E-1,5.299E1,2.0566715E-1,1.6316323E-1,1.299E1,-2.8891752E-2,1.00408636E-1,6.739922E-2,-1.24748655E-1,1.395869E-1,-9.826065E-2],"split_indices":[2,2,2,0,1,0,0,1,0,0,0,2,1,0,1,2,0,1,0,0,0,2,0,0,0,0,0,0,0,2,0,0,0,0,0,0,0,0,0,0,0],"split_type":[0,0,0,0,0,0,0,0,0,0,0,0,0,0,0,0,0,0,0,0,0,0,0,0,0,0,0,0,0,0,0,0,0,0,0,0,0,0,0,0,0],"sum_hessian":[4.6117626E1,2.9891827E1,1.6225801E1,1.5096874E1,1.4794951E1,1.1515735E1,4.7100677E0,1.225968E1,2.8371944E0,1.0605675E1,4.1892776E0,6.99549E0,4.5202446E0,2.1755939E0,2.5344737E0,1.1226491E1,1.0331882E0,8.796246E0,1.8094287E0,2.262606E0,1.9266716E0,5.5158296E0,1.4796604E0,3.4119933E0,1.1082512E0,1.0612468E0,1.1143472E0,1.0812118E0,1.4532619E0,9.541779E0,1.6847126E0,7.6817575E0,1.1144881E0,1.1890973E0,4.326732E0,6.6057906E0,2.9359877E0,6.6353173E0,1.0464401E0,1.7741388E0,2.5525935E0],"tree_param":{"num_deleted":"0","num_feature":"3","num_nodes":"41","size_leaf_vector":"1"}},{"base_weights":[1.5062131E-2,1.6360535E-1,-9.229932E-3,-2.7801361E-2,1.1371172E-1,4.268158E-2,-1.3843846E-1,1.5335922E-1,5.42356E-3,3.0461743E-3,-2.100204E-1,-1.2400777E-1,5.6177806E-2,-9.326008E-2,1.617379E-1,-1.330496E-1,3.0262955E-2,-6.306021E-2,6.977181E-2],"categories":[],"categories_nodes":[],"categories_segments":[],"categories_sizes":[],"default_left":[0,0,0,0,0,0,0,0,0,0,0,0,0,0,0,0,0,0,0],"id":31,"left_children":[1,-1,3,5,-1,7,9,-1,11,13,-1,-1,15,17,-1,-1,-1,-1,-1],"loss_changes":[5.934337E-1,0E0,3.3256385E-1,3.455321E-1,0E0,4.7496852E-1,1.3676155E0,0E0,5.835668E-1,8.1033903E-1,0E0,0E0,5.895679E-1,5.568932E-1,0E0,0E0,0E0,0E0,0E0],"parents":[2147483647,0,0,2,2,3,3,5,5,6,6,8,8,9,9,12,12,13,13],"right_children":[2,-1,4,6,-1,8,10,-1,12,14,-1,-1,16,18,-1,-1,-1,-1,-1],"split_conditions":[8.981083E-3,1.6360535E-1,8.163426E1,4E1,1.1371172E-1,1E0,7.4E1,1.5335922E-1,2.129868E0,1.72E1,-2.100204E-1,-1.2400777E-1,3E0,1.22E2,1.617379E-1,-1.330496E-1,3.0262955E-2,-6.306021E-2,6.977181E-2],"split_indices":[1,0,1,2,0,0,0,0,1,1,0,0,2,2,0,0,0,0,0],"split_type":[0,0,0,0,0,0,0,0,0,0,0,0,0,0,0,0,0,0,0],"sum_hessian":[4.467681E1,1.0174037E0,4.3659405E1,4.255246E1,1.1069449E0,2.636835E1,1.6184113E1,1.0053765E0,2.5362972E1,1.3721894E1,2.4622178E0,1.9693304E0,2.3393642E1,1.2332421E1,1.3894734E0,1.1882713E0,2.2205372E1,9.336467E0,2.995954E0],"tree_param":{"num_deleted":"0","num_feature":"3","num_nodes":"19","size_leaf_vector":"1"}},{"base_weights":[1.3469277E-2,9.039666E-2,-5.161265E-3,-1.2109723E-1,1.5263883E-2,3.265678E-1,-1.5533531E-2,3.0060738E-1,-1.0176965E-1,-4.556047E-2,1.3221397E-1,-7.664001E-2,1.3276504E-1,-6.397896E-3,-1.5878548E-1],"categories":[],"categories_nodes":[],"categories_segments":[],"categories_sizes":[],"default_left":[0,0,0,0,0,0,0,0,0,0,0,0,0,0,0],"id":32,"left_children":[1,-1,3,-1,5,7,9,-1,-1,11,-1,13,-1,-1,-1],"loss_changes":[2.4193008E-1,0E0,3.5680985E-1,0E0,4.0720275E-1,2.0584588E0,5.560442E-1,0E0,0E0,6.045151E-1,0E0,8.95413E-1,0E0,0E0,0E0],"parents":[2147483647,0,0,2,2,4,4,5,5,6,6,9,9,11,11],"right_children":[2,-1,4,-1,6,8,10,-1,-1,12,-1,14,-1,-1,-1],"split_conditions":[1E0,9.039666E-2,3E0,-1.2109723E-1,7E0,6.2E0,6.032041E1,3.0060738E-1,-1.0176965E-1,2.19E2,1.3221397E-1,1.19E2,1.3276504E-1,-6.397896E-3,-1.5878548E-1],"split_indices":[0,0,2,0,2,1,1,0,0,0,0,0,0,0,0],"split_type":[0,0,0,0,0,0,0,0,0,0,0,0,0,0,0],"sum_hessian":[4.3822178E1,1.7414945E0,4.2080685E1,1.1369009E0,4.0943783E1,2.8213637E0,3.812242E1,1.1498466E0,1.6715173E0,3.6612953E1,1.5094656E0,3.5213768E1,1.3991854E0,3.2312286E1,2.9014814E0],"tree_param":{"num_deleted":"0","num_feature":"3","num_nodes":"15","size_leaf_vector":"1"}},{"base_weights":[1.4741587E-2,-3.5633497E-2,1.1806072E-1,6.1875068E-2,-2.3007348E-1,5.8779037E-1,-5.3476185E-2,-9.9925004E-2,3.550934E-1,2.355199E-1,-6.0601634E-1,2.1523096E-1,6.364926E-2,-1.7164347E-1,6.719358E-2,-1.7852074E-1,1.4608929E-1,2.1471052E-1,1.0400455E-1,-1.9749905E-1,2.1462762E-1,-2.3533499E-1,-2.6762206E-2,2.6745242E-1,-2.3286979E-1,6.468037E-2,-4.0637276E-1,2.0559037E-1,-1.15893774E-1,-9.568767E-2,1.4852576E-1,1.23632215E-2,-1.09425984E-1,-5.014229E-2,4.425743E-1,-1.6198173E-1,1.0304182E-2,-7.476056E-2,1.8458122E-1,1.01873666E-1,-1.9639172E-1,6.1578773E-2,-1.19308285E-1,-7.755716E-2,6.0557805E-2,1.9422643E-1,7.858668E-3,8.276439E-2,-6.369103E-2],"categories":[],"categories_nodes":[],"categories_segments":[],"categories_sizes":[],"default_left":[0,0,0,0,0,0,0,0,0,0,0,0,0,0,0,0,0,0,0,0,0,0,0,0,0,0,0,0,0,0,0,0,0,0,0,0,0,0,0,0,0,0,0,0,0,0,0,0,0],"id":33,"left_children":[1,3,5,7,9,11,13,15,17,19,21,-1,-1,-1,23,25,27,-1,29,31,-1,-1,-1,33,35,37,39,-1,-1,41,-1,-1,-1,43,45,-1,47,-1,-1,-1,-1,-1,-1,-1,-1,-1,-1,-1,-1],"loss_changes":[2.3382649E-1,5.910942E-1,1.2152487E0,1.0342393E0,1.9585395E0,4.323399E-2,7.693732E-1,3.0347723E-1,6.232498E-1,1.2540052E0,4.8510623E-1,0E0,0E0,0E0,6.8536854E-1,6.537268E-1,1.4198124E0,0E0,4.934995E-1,1.5869926E-1,0E0,0E0,0E0,3.9395475E-1,3.553926E-1,1.248946E0,1.3303595E0,0E0,0E0,5.015048E-1,0E0,0E0,0E0,2.2410905E-1,3.5921192E-1,0E0,2.7114916E-1,0E0,0E0,0E0,0E0,0E0,0E0,0E0,0E0,0E0,0E0,0E0,0E0],"parents":[2147483647,0,0,1,1,2,2,3,3,4,4,5,5,6,6,7,7,8,8,9,9,10,10,14,14,15,15,16,16,18,18,19,19,23,23,24,24,25,25,26,26,29,29,33,33,34,34,36,36],"right_children":[2,4,6,8,10,12,14,16,18,20,22,-1,-1,-1,24,26,28,-1,30,32,-1,-1,-1,34,36,38,40,-1,-1,42,-1,-1,-1,44,46,-1,48,-1,-1,-1,-1,-1,-1,-1,-1,-1,-1,-1,-1],"split_conditions":[1.3851E1,3.2E1,5.599E1,6.768792E0,5.881555E0,4.9E1,2.25E1,2.699E1,2.4E1,4E1,1.25E1,2.1523096E-1,6.364926E-2,-1.7164347E-1,1.6999E2,1.299E1,4.275E0,2.1471052E-1,1.0425E1,3.599E1,2.1462762E-1,-2.3533499E-1,-2.6762206E-2,3.1E1,2.19E2,3.2678046E0,2.3844104E0,2.0559037E-1,-1.15893774E-1,3.6E1,1.4852576E-1,1.23632215E-2,-1.09425984E-1,3.1315123E1,4.1E1,-1.6198173E-1,4.75E1,-7.476056E-2,1.8458122E-1,1.01873666E-1,-1.9639172E-1,6.1578773E-2,-1.19308285E-1,-7.755716E-2,6.0557805E-2,1.9422643E-1,7.858668E-3,8.276439E-2,-6.369103E-2],"split_indices":[1,0,0,1,1,0,1,0,0,0,1,0,0,0,0,0,1,0,1,0,0,0,0,2,0,1,1,0,0,2,0,0,0,1,2,0,1,0,0,0,0,0,0,0,0,0,0,0,0],"split_type":[0,0,0,0,0,0,0,0,0,0,0,0,0,0,0,0,0,0,0,0,0,0,0,0,0,0,0,0,0,0,0,0,0,0,0,0,0,0,0,0,0,0,0,0,0,0,0,0,0],"sum_hessian":[4.311765E1,2.9425724E1,1.3691923E1,2.0051828E1,9.373896E0,3.0134375E0,1.0678486E1,1.3346398E1,6.70543E0,4.354503E0,5.0193925E0,1.5637424E0,1.4496952E0,1.309315E0,9.36917E0,1.0322844E1,3.0235555E0,1.9928911E0,4.712539E0,2.5984147E0,1.7560883E0,3.3462076E0,1.673185E0,5.684249E0,3.6849217E0,5.3396363E0,4.983207E0,1.3594891E0,1.6640664E0,3.6196265E0,1.0929124E0,1.3810074E0,1.2174072E0,2.2739563E0,3.4102924E0,1.0891762E0,2.5957453E0,3.7495008E0,1.5901353E0,1.1525135E0,3.8306935E0,1.9734333E0,1.6461933E0,1.2305368E0,1.0434196E0,1.9138459E0,1.4964466E0,1.0745093E0,1.5212362E0],"tree_param":{"num_deleted":"0","num_feature":"3","num_nodes":"49","size_leaf_vector":"1"}},{"base_weights":[1.7160758E-2,-1.2685412E-2,2.2282094E-1,3.0735612E-2,-1.9802068E-1,3.9839098E-1,-2.3761094E-2,2.5095195E-1,-3.778593E-2,2.8392835E-2,1.6327365E-1,7.234338E-2,1.8119732E-1,-2.8922373E-1,2.4662944E-2,2.2180817E-1,-1.3602218E-1,-1.8135613E-1,1.1437418E-1,3.7339044E-1,-5.3259205E-2,-2.3572376E-2,1.6062325E-1,1.20747946E-1,-1.7343386E-1,1.4447317E-1,-7.4547544E-2,1.6054416E-1,-1.9324243E-2,-2.0707278E-1,1.819477E-2],"categories":[],"categories_nodes":[],"categories_segments":[],"categories_sizes":[],"default_left":[0,0,0,0,0,0,0,0,0,0,0,0,0,0,0,0,0,0,0,0,0,0,0,0,0,0,0,0,0,0,0],"id":34,"left_children":[1,3,5,7,-1,9,-1,11,13,-1,-1,15,-1,17,19,21,23,-1,25,27,29,-1,-1,-1,-1,-1,-1,-1,-1,-1,-1],"loss_changes":[2.5934234E-1,1.0727353E0,3.152471E-1,5.533469E-1,0E0,1.0572815E-1,0E0,5.0389695E-1,4.5241365E-1,0E0,0E0,2.4514747E-1,0E0,7.970973E-1,6.6220653E-1,4.5652127E-1,1.0666926E0,0E0,5.660199E-1,3.4904027E-1,1.5072181E0,0E0,0E0,0E0,0E0,0E0,0E0,0E0,0E0,0E0,0E0],"parents":[2147483647,0,0,1,1,2,2,3,3,5,5,7,7,8,8,11,11,13,13,14,14,15,15,16,16,18,18,19,19,20,20],"right_children":[2,4,6,8,-1,10,-1,12,14,-1,-1,16,-1,18,20,22,24,-1,26,28,30,-1,-1,-1,-1,-1,-1,-1,-1,-1,-1],"split_conditions":[1.15E2,7E1,1.28E2,2.199E1,-1.9802068E-1,1.22E2,-2.3761094E-2,6.095122E0,1.2E1,2.8392835E-2,1.6327365E-1,1.299E1,1.8119732E-1,3.535842E1,4.275E0,3.2678046E0,1.1E1,-1.8135613E-1,1.2002061E1,4.8E1,7E0,-2.3572376E-2,1.6062325E-1,1.20747946E-1,-1.7343386E-1,1.4447317E-1,-7.4547544E-2,1.6054416E-1,-1.9324243E-2,-2.0707278E-1,1.819477E-2],"split_indices":[2,2,2,0,0,2,0,1,2,0,0,0,0,0,1,1,2,0,1,2,1,0,0,0,0,0,0,0,0,0,0],"split_type":[0,0,0,0,0,0,0,0,0,0,0,0,0,0,0,0,0,0,0,0,0,0,0,0,0,0,0,0,0,0,0],"sum_hessian":[4.0790283E1,3.6440254E1,4.350027E0,3.5042427E1,1.397827E0,2.5491254E0,1.8009014E0,7.6842394E0,2.7358189E1,1.361866E0,1.1872596E0,5.902818E0,1.7814212E0,4.7205353E0,2.2637653E1,3.3996596E0,2.5031586E0,2.3706894E0,2.3498461E0,3.4419491E0,1.9195705E1,2.1192203E0,1.2804394E0,1.16889E0,1.3342685E0,1.0053406E0,1.3445054E0,2.350983E0,1.0909661E0,2.1444085E0,1.7051296E1],"tree_param":{"num_deleted":"0","num_feature":"3","num_nodes":"31","size_leaf_vector":"1"}},{"base_weights":[1.1993861E-2,-1.4724401E-2,1.921875E-1,2.2676822E-2,-1.8036759E-1,3.394567E-1,-1.9315522E-2,2.2052304E-1,-3.588149E-2,2.4672464E-2,1.4268422E-1,7.439911E-2,1.7325996E-1,-6.883783E-2,9.854298E-2,2.0743968E-1,-1.0633006E-1,-2.461085E-2,-3.751493E-1,-1.8828264E-2,1.4743109E-1,9.58539E-2,-1.6121158E-1,-3.037236E-2,8.850582E-2,1.1934496E-2,-1.7374061E-1],"categories":[],"categories_nodes":[],"categories_segments":[],"categories_sizes":[],"default_left":[0,0,0,0,0,0,0,0,0,0,0,0,0,0,0,0,0,0,0,0,0,0,0,0,0,0,0],"id":35,"left_children":[1,3,5,7,-1,9,-1,11,13,-1,-1,15,-1,17,-1,19,21,23,25,-1,-1,-1,-1,-1,-1,-1,-1],"loss_changes":[1.9886906E-1,8.118728E-1,2.2321844E-1,4.15398E-1,0E0,8.504331E-2,0E0,3.833771E-1,3.5882473E-1,0E0,0E0,1.8909082E-1,0E0,3.4981722E-1,0E0,3.6389762E-1,8.3372223E-1,6.233391E-1,3.0012634E-1,0E0,0E0,0E0,0E0,0E0,0E0,0E0,0E0],"parents":[2147483647,0,0,1,1,2,2,3,3,5,5,7,7,8,8,11,11,13,13,15,15,16,16,17,17,18,18],"right_children":[2,4,6,8,-1,10,-1,12,14,-1,-1,16,-1,18,-1,20,22,24,26,-1,-1,-1,-1,-1,-1,-1,-1],"split_conditions":[1.09E2,7E1,1.28E2,2.199E1,-1.8036759E-1,1.22E2,-1.9315522E-2,6.768792E0,6.032041E1,2.4672464E-2,1.4268422E-1,1.299E1,1.7325996E-1,5.2E1,9.854298E-2,3.2678046E0,1.1E1,3.8E1,2.9E1,-1.8828264E-2,1.4743109E-1,9.58539E-2,-1.6121158E-1,-3.037236E-2,8.850582E-2,1.1934496E-2,-1.7374061E-1],"split_indices":[2,2,2,0,0,2,0,1,1,0,0,0,0,2,0,1,2,2,0,0,0,0,0,0,0,0,0],"split_type":[0,0,0,0,0,0,0,0,0,0,0,0,0,0,0,0,0,0,0,0,0,0,0,0,0,0,0],"sum_hessian":[3.971883E1,3.5389698E1,4.329131E0,3.4171886E1,1.2178096E0,2.5451856E0,1.7839457E0,7.172585E0,2.6999304E1,1.436157E0,1.1090286E0,5.9469132E0,1.2256714E0,2.5503567E1,1.4957373E0,3.3402526E0,2.6066606E0,2.3229855E1,2.2737117E0,2.1109052E0,1.2293476E0,1.4413941E0,1.1652666E0,1.9288704E1,3.9411511E0,1.0146915E0,1.2590202E0],"tree_param":{"num_deleted":"0","num_feature":"3","num_nodes":"27","size_leaf_vector":"1"}},{"base_weights":[1.3034023E-2,8.492863E-2,-5.7599777E-3,-6.488718E-2,6.9271915E-2,1.0034333E-2,-3.467309E-1,1.7639232E-1,-3.6096867E-2,-1.6520202E-1,2.2825283E-1,1.19445376E-1,-2.0923127E-1,-1.945716E-1,8.151478E-2,1.3527201E-1,-3.2896027E-1,7.851559E-1,-1.0240979E-1,5.106888E-1,-6.456698E-2,-8.726443E-2,2.3643495E-1,7.238489E-2,-1.8890536E-1,8.28533E-2,2.9334727E-1,-1.7524594E-1,4.2822596E-2,1.929065E-1,5.5224687E-2,-1.5810859E-1,1.1406532E-2],"categories":[],"categories_nodes":[],"categories_segments":[],"categories_sizes":[],"default_left":[0,0,0,0,0,0,0,0,0,0,0,0,0,0,0,0,0,0,0,0,0,0,0,0,0,0,0,0,0,0,0,0,0],"id":36,"left_children":[1,-1,3,5,7,9,11,-1,13,15,17,-1,-1,-1,19,21,23,25,27,29,31,-1,-1,-1,-1,-1,-1,-1,-1,-1,-1,-1,-1],"loss_changes":[2.0397699E-1,0E0,1.742022E-1,4.661427E-1,9.690939E-1,7.3677146E-1,1.4870372E0,0E0,1.1590801E0,5.719376E-1,1.6570487E0,0E0,0E0,0E0,8.963549E-1,1.478367E0,1.3916678E0,5.4058313E-2,8.2230747E-1,3.7629724E-2,5.495968E-1,0E0,0E0,0E0,0E0,0E0,0E0,0E0,0E0,0E0,0E0,0E0,0E0],"parents":[2147483647,0,0,2,2,3,3,4,4,5,5,6,6,8,8,9,9,10,10,14,14,15,15,16,16,17,17,18,18,19,19,20,20],"right_children":[2,-1,4,6,8,10,12,-1,14,16,18,-1,-1,-1,20,22,24,26,28,30,32,-1,-1,-1,-1,-1,-1,-1,-1,-1,-1,-1,-1],"split_conditions":[1E0,8.492863E-2,1.057E1,7.796758E0,3.699E1,2.999E1,2.9E1,1.7639232E-1,1.3851E1,2.3844104E0,1.3E1,1.19445376E-1,-2.0923127E-1,-1.945716E-1,5.599E1,1.9E1,1.799E1,5E0,3E1,4.9E1,2.25E1,-8.726443E-2,2.3643495E-1,7.238489E-2,-1.8890536E-1,8.28533E-2,2.9334727E-1,-1.7524594E-1,4.2822596E-2,1.929065E-1,5.5224687E-2,-1.5810859E-1,1.1406532E-2],"split_indices":[0,0,1,1,0,0,0,0,1,1,2,0,0,0,0,0,0,1,0,0,1,0,0,0,0,0,0,0,0,0,0,0,0],"split_type":[0,0,0,0,0,0,0,0,0,0,0,0,0,0,0,0,0,0,0,0,0,0,0,0,0,0,0,0,0,0,0,0,0],"sum_hessian":[3.8867004E1,1.6138356E0,3.725317E1,2.0910402E1,1.6342768E1,1.7281042E1,3.6293604E0,1.9860103E0,1.4356758E1,9.719182E0,7.561859E0,1.1184819E0,2.5108783E0,1.5855125E0,1.2771246E1,3.48981E0,6.229372E0,2.3051035E0,5.2567554E0,2.609342E0,1.0161903E1,2.4469614E0,1.0428487E0,2.2191007E0,4.0102715E0,1.3011771E0,1.0039265E0,1.306518E0,3.9502375E0,1.1675026E0,1.4418393E0,1.0938088E0,9.068095E0],"tree_param":{"num_deleted":"0","num_feature":"3","num_nodes":"33","size_leaf_vector":"1"}},{"base_weights":[1.4305014E-2,9.80286E-2,-5.462351E-2,-3.9964728E-2,3.3668274E-1,-2.5586972E-1,6.0831256E-2,1.3358104E-1,-1.6755103E-1,1.8117414E-1,1.402487E-1,1.04044005E-1,-2.064167E-1,2.605782E-1,-1.5677044E-1,4.4007173E-1,-2.6465088E-1,-4.0071204E-1,1.5337151E-1,1.1464796E-1,-9.667877E-2,-2.1503218E-1,1.3140328E-1,1.2006411E-1,1.7592856E-1,-1.6941051E-1,5.4809293E-3,3.0147685E-2,1.9549333E-1,-1.7265396E-1,5.1939443E-2,-3.055921E-2,-4.832561E-1,1.00607015E-1,-1.3966433E-2,-1.6135068E-1,1.0947971E-1,2.6472178E-3,-1.0552777E-1,3.0686662E-1,-1.4120997E-1,2.450497E-1,-1.7489256E-1,-3.92847E-2,-1.7515758E-1,2.9839862E-3,1.2874958E-1,1.1506914E-2,9.96326E-2,1.943071E-2,-9.5834754E-2],"categories":[],"categories_nodes":[],"categories_segments":[],"categories_sizes":[],"default_left":[0,0,0,0,0,0,0,0,0,0,0,0,0,0,0,0,0,0,0,0,0,0,0,0,0,0,0,0,0,0,0,0,0,0,0,0,0,0,0,0,0,0,0,0,0,0,0,0,0,0,0],"id":37,"left_children":[1,3,5,7,9,11,13,15,17,-1,19,21,-1,23,25,27,29,31,33,-1,35,37,-1,39,-1,-1,41,-1,-1,-1,-1,-1,43,-1,-1,-1,-1,-1,-1,45,-1,47,49,-1,-1,-1,-1,-1,-1,-1,-1],"loss_changes":[2.2667533E-1,5.9553325E-1,5.192051E-1,2.9014814E-1,2.6079482E-1,1.3306372E0,6.746569E-1,8.097491E-1,6.161472E-1,0E0,3.2901376E-1,6.573615E-1,0E0,2.94899E-1,5.0634414E-1,1.9210476E-1,5.2081084E-1,6.351608E-2,1.5542096E-1,0E0,8.830611E-1,1.0635677E-1,0E0,8.98401E-1,0E0,0E0,3.207164E-1,0E0,0E0,0E0,0E0,0E0,4.1006863E-2,0E0,0E0,0E0,0E0,0E0,0E0,2.0620346E-1,0E0,4.445432E-2,1.6799295E-1,0E0,0E0,0E0,0E0,0E0,0E0,0E0,0E0],"parents":[2147483647,0,0,1,1,2,2,3,3,4,4,5,5,6,6,7,7,8,8,10,10,11,11,13,13,14,14,15,15,16,16,17,17,18,18,20,20,21,21,23,23,26,26,32,32,39,39,41,41,42,42],"right_children":[2,4,6,8,10,12,14,16,18,-1,20,22,-1,24,26,28,30,32,34,-1,36,38,-1,40,-1,-1,42,-1,-1,-1,-1,-1,44,-1,-1,-1,-1,-1,-1,46,-1,48,50,-1,-1,-1,-1,-1,-1,-1,-1],"split_conditions":[3.2E1,6.768792E0,1.3E1,2.3844104E0,2.4E1,5.881555E0,9.9E1,5.7E1,4.1E1,1.8117414E-1,1.4E1,4E1,-2.064167E-1,2.857E1,3.635E1,1.2E1,1.29E2,4.169E0,1.299E1,1.1464796E-1,8.595302E0,3.599E1,1.3140328E-1,7.4E1,1.7592856E-1,-1.6941051E-1,1.6999E2,3.0147685E-2,1.9549333E-1,-1.7265396E-1,5.1939443E-2,-3.055921E-2,2.3374046E1,1.00607015E-1,-1.3966433E-2,-1.6135068E-1,1.0947971E-1,2.6472178E-3,-1.0552777E-1,2.7E1,-1.4120997E-1,4.05E1,4.75E1,-3.92847E-2,-1.7515758E-1,2.9839862E-3,1.2874958E-1,1.1506914E-2,9.96326E-2,1.943071E-2,-9.5834754E-2],"split_indices":[0,1,1,1,0,1,0,2,2,0,2,0,0,1,1,0,2,1,0,0,1,0,0,0,0,0,0,0,0,0,0,0,0,0,0,0,0,0,0,2,0,1,1,0,0,0,0,0,0,0,0],"split_type":[0,0,0,0,0,0,0,0,0,0,0,0,0,0,0,0,0,0,0,0,0,0,0,0,0,0,0,0,0,0,0,0,0,0,0,0,0,0,0,0,0,0,0,0,0,0,0,0,0,0,0],"sum_hessian":[3.735087E1,1.6674778E1,2.0676088E1,1.1093116E1,5.5816617E0,7.094194E0,1.3581895E1,4.680122E0,6.4129944E0,1.4858754E0,4.095786E0,4.285007E0,2.8091867E0,6.978499E0,6.603396E0,2.5853212E0,2.0948007E0,3.5703726E0,2.8426216E0,1.7232778E0,2.3725085E0,2.373481E0,1.9115261E0,5.83205E0,1.1464487E0,1.1732377E0,5.4301586E0,1.558641E0,1.0266801E0,1.040996E0,1.0538049E0,1.2562429E0,2.3141298E0,1.1334678E0,1.7091538E0,1.1286974E0,1.2438111E0,1.254695E0,1.1187861E0,4.796069E0,1.0359809E0,2.178348E0,3.2518103E0,1.0252788E0,1.288851E0,1.7146137E0,3.0814555E0,1.0725365E0,1.1058116E0,1.4311093E0,1.8207011E0],"tree_param":{"num_deleted":"0","num_feature":"3","num_nodes":"51","size_leaf_vector":"1"}},{"base_weights":[9.139188E-3,7.0950806E-2,-9.818465E-2,-2.5132985E-3,1.9453306E-1,-5.252473E-1,5.3643636E-2,6.625964E-2,-1.4467104E-1,-2.9807234E-2,-1.9360091E-1,3.946314E-1,-1.0249008E-1,-1.0077964E-2,1.5068471E-1,1.7349955E-2,1.5240887E-1,-1.5167898E-1,5.8538914E-2,-6.722514E-2,2.616158E-1,3.038433E-1,-1.597519E-1,1.6061331E-3,-1.5014648E-1,1.4667179E-1,-1.2543476E-2,1.0763671E-1,2.5244724E-2,4.554821E-3,-7.852576E-2],"categories":[],"categories_nodes":[],"categories_segments":[],"categories_sizes":[],"default_left":[0,0,0,0,0,0,0,0,0,0,0,0,0,0,0,0,0,0,0,0,0,0,0,0,0,0,0,0,0,0,0],"id":38,"left_children":[1,3,5,7,-1,9,11,13,-1,-1,-1,15,17,19,-1,-1,-1,-1,21,23,25,27,29,-1,-1,-1,-1,-1,-1,-1,-1],"loss_changes":[2.5112674E-1,1.0170721E0,9.2752105E-1,7.6536316E-1,0E0,1.266743E-1,6.3352084E-1,6.8147355E-1,0E0,0E0,0E0,1.1211693E-1,5.7711786E-1,3.0132508E-1,0E0,0E0,0E0,0E0,4.1927153E-1,5.0248396E-1,2.5356245E-1,1.3320088E-2,8.103668E-2,0E0,0E0,0E0,0E0,0E0,0E0,0E0,0E0],"parents":[2147483647,0,0,1,1,2,2,3,3,5,5,6,6,7,7,11,11,12,12,13,13,18,18,19,19,20,20,21,21,22,22],"right_children":[2,4,6,8,-1,10,12,14,-1,-1,-1,16,18,20,-1,-1,-1,-1,22,24,26,28,30,-1,-1,-1,-1,-1,-1,-1,-1],"split_conditions":[4.5E1,4E1,1.7424408E1,3.9E1,1.9453306E-1,3.11E0,8.499E1,1.057E1,-1.4467104E-1,-2.9807234E-2,-1.9360091E-1,2.003E1,3.56859E1,1.22E2,1.5068471E-1,1.7349955E-2,1.5240887E-1,-1.5167898E-1,1.6999E2,6.7E1,1.31E2,1.49E2,4.75E1,1.6061331E-3,-1.5014648E-1,1.4667179E-1,-1.2543476E-2,1.0763671E-1,2.5244724E-2,4.554821E-3,-7.852576E-2],"split_indices":[0,0,1,0,0,1,0,1,0,0,0,1,1,2,0,0,0,0,0,2,2,0,1,0,0,0,0,0,0,0,0],"split_type":[0,0,0,0,0,0,0,0,0,0,0,0,0,0,0,0,0,0,0,0,0,0,0,0,0,0,0,0,0,0,0],"sum_hessian":[3.5805187E1,2.2935009E1,1.2870178E1,2.1229948E1,1.70506E0,2.7304595E0,1.0139719E1,1.9321856E1,1.9080927E0,1.0025016E0,1.7279577E0,2.704881E0,7.434838E0,1.7274391E1,2.047464E0,1.0616697E0,1.6432112E0,1.5114399E0,5.9233975E0,1.4894171E1,2.380221E0,2.6045802E0,3.3188176E0,1.3603069E1,1.2911016E0,1.0113585E0,1.3688624E0,1.5770335E0,1.0275468E0,1.5358797E0,1.7829378E0],"tree_param":{"num_deleted":"0","num_feature":"3","num_nodes":"31","size_leaf_vector":"1"}},{"base_weights":[6.513678E-3,6.739295E-2,-9.0327114E-2,1.4517781E-1,-7.9048514E-2,-4.6950957E-1,4.6372615E-2,1.3861206E-2,3.902057E-1,-1.4587405E-1,6.8849444E-2,-2.4160137E-2,-1.8107624E-1,2.7257982E-1,-1.1871796E-1,8.856475E-2,-9.2701174E-2,2.0382811E-1,4.451177E-2,-1.21895194E-1,2.2656293E-1,6.49012E-2,1.2897137E-1,-2.692691E-1,7.6560594E-2,-2.9365462E-1,1.7927761E-1,-9.428655E-2,1.3123377E-1,-1.4243169E-1,5.7014212E-2,1.2713617E-1,-1.865316E-2,1.24057986E-1,-1.0761294E-1,-3.997144E-1,2.7347941E-2,1.0561636E-2,-1.8444422E-1,1.5312812E-1,-2.3936616E-2,-1.8771075E-1,3.295695E-2],"categories":[],"categories_nodes":[],"categories_segments":[],"categories_sizes":[],"default_left":[0,0,0,0,0,0,0,0,0,0,0,0,0,0,0,0,0,0,0,0,0,0,0,0,0,0,0,0,0,0,0,0,0,0,0,0,0,0,0,0,0,0,0],"id":39,"left_children":[1,3,5,7,9,11,13,15,17,-1,19,-1,-1,21,23,-1,25,-1,27,29,31,33,-1,35,-1,37,39,-1,-1,-1,-1,-1,-1,-1,-1,41,-1,-1,-1,-1,-1,-1,-1],"loss_changes":[2.1778053E-1,2.6913604E-1,7.6233906E-1,4.812703E-1,5.450385E-1,1.535235E-1,4.5851818E-1,3.5370672E-1,4.9374658E-1,0E0,2.4141973E-1,0E0,0E0,1.3931763E-1,4.793001E-1,0E0,5.25717E-1,0E0,6.2493205E-1,5.1588595E-1,2.6781535E-1,6.4805585E-1,0E0,3.0379495E-1,0E0,5.874132E-1,4.0951568E-1,0E0,0E0,0E0,0E0,0E0,0E0,0E0,0E0,5.709439E-1,0E0,0E0,0E0,0E0,0E0,0E0,0E0],"parents":[2147483647,0,0,1,1,2,2,3,3,4,4,5,5,6,6,7,7,8,8,10,10,13,13,14,14,16,16,18,18,19,19,20,20,21,21,23,23,25,25,26,26,35,35],"right_children":[2,4,6,8,10,12,14,16,18,-1,20,-1,-1,22,24,-1,26,-1,28,30,32,34,-1,36,-1,38,40,-1,-1,-1,-1,-1,-1,-1,-1,42,-1,-1,-1,-1,-1,-1,-1],"split_conditions":[4.4E1,5.2E1,1.641579E1,2.9E1,6.2E1,2.85E0,9.9E1,7E0,4.275E0,-1.4587405E-1,4.387805E0,-2.4160137E-2,-1.8107624E-1,2.5E1,6.032041E1,8.856475E-2,7E0,2.0382811E-1,9.265854E0,8E1,2.9E1,5.599E1,1.2897137E-1,2.19E2,7.6560594E-2,4.169E0,8.14E0,-9.428655E-2,1.3123377E-1,-1.4243169E-1,5.7014212E-2,1.2713617E-1,-1.865316E-2,1.24057986E-1,-1.0761294E-1,3.6E1,2.7347941E-2,1.0561636E-2,-1.8444422E-1,1.5312812E-1,-2.3936616E-2,-1.8771075E-1,3.295695E-2],"split_indices":[0,2,1,2,2,1,0,2,1,0,1,0,0,1,1,0,1,0,1,2,0,0,0,0,0,1,1,0,0,0,0,0,0,0,0,2,0,0,0,0,0,0,0],"split_type":[0,0,0,0,0,0,0,0,0,0,0,0,0,0,0,0,0,0,0,0,0,0,0,0,0,0,0,0,0,0,0,0,0,0,0,0,0,0,0,0,0,0,0],"sum_hessian":[3.490699E1,2.161975E1,1.3287239E1,1.41254225E1,7.4943275E0,2.8757577E0,1.0411481E1,9.884592E0,4.2408304E0,1.3872312E0,6.107096E0,1.1474677E0,1.72829E0,4.117959E0,6.2935224E0,2.2290134E0,7.6555786E0,1.7833818E0,2.4574485E0,2.866886E0,3.2402103E0,2.3837662E0,1.7341926E0,4.686482E0,1.6070403E0,4.356817E0,3.2987616E0,1.3891355E0,1.068313E0,1.1002592E0,1.7666267E0,1.647305E0,1.5929052E0,1.3206758E0,1.0630903E0,3.3610609E0,1.3254211E0,2.5925171E0,1.7642996E0,1.0220623E0,2.2766993E0,2.1705496E0,1.1905111E0],"tree_param":{"num_deleted":"0","num_feature":"3","num_nodes":"43","size_leaf_vector":"1"}},{"base_weights":[2.846255E-3,-9.048271E-2,2.0921709E-2,2.9601228E-1,-8.397884E-3,2.1680392E-1,-7.614004E-2,-3.434767E-1,3.812155E-2,-2.35808E-3,-1.4225154E-1,1.631025E-1,-5.9491653E-2,3.6143407E-1,-5.704146E-2,-3.5466564E-1,8.385585E-2,1.6230792E-1,-3.4747534E-2,-8.6952016E-2,6.594333E-2,6.039785E-3,-2.0564885E-1,1.19942114E-1,2.3367933E-3],"categories":[],"categories_nodes":[],"categories_segments":[],"categories_sizes":[],"default_left":[0,0,0,0,0,0,0,0,0,0,0,0,0,0,0,0,0,0,0,0,0,0,0,0,0],"id":40,"left_children":[1,-1,3,5,7,-1,-1,9,11,-1,-1,13,15,17,19,21,23,-1,-1,-1,-1,-1,-1,-1,-1],"loss_changes":[1.9842519E-1,0E0,2.7581573E-1,9.5558345E-1,5.0561744E-1,0E0,0E0,1.6961175E-1,3.591686E-1,0E0,0E0,5.807463E-1,7.412789E-1,6.528011E-1,5.112444E-1,7.191159E-1,2.8836212E-1,0E0,0E0,0E0,0E0,0E0,0E0,0E0,0E0],"parents":[2147483647,0,0,2,2,3,3,4,4,7,7,8,8,11,11,12,12,13,13,14,14,15,15,16,16],"right_children":[2,-1,4,6,8,-1,-1,10,12,-1,-1,14,16,18,20,22,24,-1,-1,-1,-1,-1,-1,-1,-1],"split_conditions":[2E0,-9.048271E-2,7E0,6.2E0,1.2E1,2.1680392E-1,-7.614004E-2,2.3844104E0,3.2E1,-2.35808E-3,-1.4225154E-1,5.2E1,1.2454584E1,7.796758E0,4.82E0,4.82E0,4.4E1,1.6230792E-1,-3.4747534E-2,-8.6952016E-2,6.594333E-2,6.039785E-3,-2.0564885E-1,1.19942114E-1,2.3367933E-3],"split_indices":[2,0,2,1,2,0,0,1,0,0,0,2,1,1,1,1,0,0,0,0,0,0,0,0,0],"split_type":[0,0,0,0,0,0,0,0,0,0,0,0,0,0,0,0,0,0,0,0,0,0,0,0,0],"sum_hessian":[3.3909893E1,1.0213076E0,3.2888584E1,2.2916028E0,3.0596981E1,1.1132686E0,1.1783342E0,2.9517875E0,2.7645195E1,1.1244401E0,1.8273473E0,1.1828913E1,1.5816282E1,5.885107E0,5.943805E0,4.688268E0,1.1128014E1,4.1789575E0,1.7061496E0,3.2033093E0,2.7404962E0,2.6383846E0,2.0498836E0,1.3334321E0,9.794581E0],"tree_param":{"num_deleted":"0","num_feature":"3","num_nodes":"25","size_leaf_vector":"1"}},{"base_weights":[-2.3105186E-3,-3.405504E-2,2.1011071E-1,-1.9028011E-3,-1.18259974E-1,-3.9907787E-3,1.0592694E-1,-2.6475001E-2,8.278025E-2,9.4445525E-3,-8.892504E-2,-5.110385E-2,2.2024511E-1,1.0975565E-2,-1.0323614E-1],"categories":[],"categories_nodes":[],"categories_segments":[],"categories_sizes":[],"default_left":[0,0,0,0,0,0,0,0,0,0,0,0,0,0,0],"id":41,"left_children":[1,3,5,7,-1,-1,-1,9,-1,11,-1,13,-1,-1,-1],"loss_changes":[2.395676E-1,3.564257E-1,1.5229133E-1,2.0749132E-1,0E0,0E0,0E0,2.7286044E-1,0E0,1.1586679E0,0E0,6.4249444E-1,0E0,0E0,0E0],"parents":[2147483647,0,0,1,1,2,2,3,3,7,7,9,9,11,11],"right_children":[2,4,6,8,-1,-1,-1,10,-1,12,-1,14,-1,-1,-1],"split_conditions":[1.09E2,6.7E1,3E1,6.032041E1,-1.18259974E-1,-3.9907787E-3,1.0592694E-1,4.05E1,8.278025E-2,1.5999E2,-8.892504E-2,5.299E1,2.2024511E-1,1.0975565E-2,-1.0323614E-1],"split_indices":[2,2,0,1,0,0,0,1,0,0,0,0,0,0,0],"split_type":[0,0,0,0,0,0,0,0,0,0,0,0,0,0,0],"sum_hessian":[3.3466118E1,2.9845629E1,3.62049E0,2.8322407E1,1.5232233E0,1.7667692E0,1.8537208E0,2.6852272E1,1.4701338E0,2.4550495E1,2.3017764E0,2.35153E1,1.0351952E0,1.877252E1,4.74278E0],"tree_param":{"num_deleted":"0","num_feature":"3","num_nodes":"15","size_leaf_vector":"1"}},{"base_weights":[6.486993E-4,8.285062E-2,-1.993443E-2,-1.5952967E-1,2.1794435E-2,-3.9308E-1,9.340563E-2,1.0074345E-1,-6.9977883E-3,-2.9124126E-2,-1.582614E-1,1.21269114E-1,-1.1657356E-1,9.140887E-2,-4.5748245E-2,-1.2089115E-1,8.477988E-2,-3.6528665E-1,7.453915E-3,-3.6940286E-3,-1.6389903E-1,2.3941489E-2,-5.3389452E-2],"categories":[],"categories_nodes":[],"categories_segments":[],"categories_sizes":[],"default_left":[0,0,0,0,0,0,0,0,0,0,0,0,0,0,0,0,0,0,0,0,0,0,0],"id":42,"left_children":[1,-1,3,5,7,9,11,-1,13,-1,-1,-1,15,-1,17,-1,-1,19,21,-1,-1,-1,-1],"loss_changes":[2.0031677E-1,0E0,1.9510454E-1,4.9103695E-1,2.3928289E-1,1.15572035E-1,3.4083486E-1,0E0,3.157076E-1,0E0,0E0,0E0,5.0965667E-1,0E0,3.9527577E-1,0E0,0E0,2.0516756E-1,2.9290828E-1,0E0,0E0,0E0,0E0],"parents":[2147483647,0,0,2,2,3,3,4,4,5,5,6,6,8,8,12,12,14,14,17,17,18,18],"right_children":[2,-1,4,6,8,10,12,-1,14,-1,-1,-1,16,-1,18,-1,-1,20,22,-1,-1,-1,-1],"split_conditions":[1E0,8.285062E-2,3.9766123E0,3.5E1,1.799E1,1.1E1,1E0,1.0074345E-1,4.275E0,-2.9124126E-2,-1.582614E-1,1.21269114E-1,2.699E1,9.140887E-2,5.643E0,-1.2089115E-1,8.477988E-2,4.82E0,4.3E1,-3.6940286E-3,-1.6389903E-1,2.3941489E-2,-5.3389452E-2],"split_indices":[0,0,1,2,0,2,1,0,1,0,0,0,0,0,1,0,0,1,2,0,0,0,0],"split_type":[0,0,0,0,0,0,0,0,0,0,0,0,0,0,0,0,0,0,0,0,0,0,0],"sum_hessian":[3.3351837E1,1.4552346E0,3.1896603E1,6.6908264E0,2.5205776E1,3.190642E0,3.5001845E0,1.221411E0,2.3984364E1,1.5345201E0,1.656122E0,1.0382309E0,2.4619536E0,1.8931937E0,2.2091171E1,1.4279336E0,1.0340201E0,2.3158562E0,1.9775314E1,1.1472068E0,1.1686494E0,1.4634484E1,5.140831E0],